254 128
， -0.280727 0.170978 -0.443776 0.250196 -0.593470 0.098957 0.056382 -0.119471 0.464182 -0.358800 0.231023 -0.002119 -0.355044 -0.868090 -0.465916 0.351339 0.479197 0.040653 -0.537553 0.499419 0.475704 -0.062444 0.367554 0.284810 0.587506 -0.610151 0.964008 0.382997 0.140836 0.589643 0.098222 0.263868 -0.506832 0.677298 0.117741 -0.581835 0.523069 0.309199 -0.186122 0.576402 0.907053 -0.143565 0.205693 -0.639021 0.144625 -0.154322 0.688080 -0.135282 0.730300 -0.713364 -0.296239 0.117512 -0.175743 -0.600544 0.677905 -0.029044 0.167483 -0.153392 0.006339 0.528986 0.031742 -0.055073 -0.062180 -0.004016 -0.095268 -0.049297 -0.079556 -0.109892 0.267997 -0.301613 -0.594152 0.522478 0.285317 -0.219420 -0.257956 -0.041858 -0.209859 -0.106250 -0.129250 -0.048636 -0.272626 -0.318631 -0.618781 -0.169808 0.299952 0.102047 -0.248453 -0.216068 0.109284 -0.385714 -0.686221 -0.938244 -0.243461 0.339934 0.149171 0.385852 -0.604401 0.431272 0.474589 -0.016525 -0.121784 0.681488 0.632443 -0.253300 0.341693 0.257832 0.152044 0.358300 0.043300 -0.213540 -0.536373 -0.164043 -0.159966 0.728635 -0.374577 0.101828 0.111148 -0.675302 0.545330 0.158791 0.103639 -0.111826 -0.419869 0.190235 -0.020633 0.117105 0.307149 -0.151266
、 -0.237464 0.146476 -0.380703 0.211094 -0.509125 0.086220 0.045087 -0.103434 0.398941 -0.304772 0.196843 0.002079 -0.305976 -0.737479 -0.399419 0.304310 0.403042 0.032344 -0.461611 0.427963 0.402280 -0.051894 0.312730 0.245002 0.501959 -0.518427 0.819804 0.329417 0.123117 0.507302 0.080100 0.224989 -0.430505 0.579508 0.099105 -0.493449 0.447831 0.270014 -0.155431 0.490529 0.776701 -0.124107 0.174217 -0.544675 0.122454 -0.127664 0.584019 -0.111241 0.627614 -0.612769 -0.257980 0.102553 -0.147654 -0.506920 0.575201 -0.023264 0.145348 -0.129320 0.009672 0.452148 0.032107 -0.042323 -0.055393 0.000459 -0.076160 -0.044353 -0.065644 -0.093525 0.230439 -0.255755 -0.505364 0.443966 0.249492 -0.189544 -0.223645 -0.029977 -0.177801 -0.092301 -0.111368 -0.042945 -0.238647 -0.270075 -0.526246 -0.138662 0.252160 0.091529 -0.214561 -0.179983 0.091349 -0.322899 -0.580677 -0.806011 -0.212982 0.292393 0.127663 0.322618 -0.515580 0.368833 0.406676 -0.010395 -0.105362 0.587457 0.537369 -0.213712 0.294944 0.217065 0.131673 0.314149 0.042100 -0.176652 -0.457396 -0.142814 -0.130083 0.618641 -0.320828 0.082409 0.099828 -0.577667 0.470224 0.138762 0.088257 -0.101324 -0.357674 0.158977 -0.021605 0.094570 0.259473 -0.133860
的 -0.193442 0.124142 -0.312625 0.171898 -0.414936 0.064717 0.038955 -0.079039 0.322893 -0.252995 0.164322 -0.001620 -0.252412 -0.602862 -0.326443 0.247059 0.334641 0.029876 -0.373789 0.352329 0.333715 -0.040867 0.255380 0.199108 0.410060 -0.421772 0.676749 0.268205 0.095927 0.415464 0.064557 0.185381 -0.359346 0.471074 0.081235 -0.408079 0.372099 0.216939 -0.130935 0.405915 0.638685 -0.097124 0.145902 -0.447493 0.102329 -0.109752 0.479515 -0.096905 0.510121 -0.496885 -0.211455 0.084078 -0.120617 -0.420347 0.473801 -0.016510 0.118563 -0.103463 0.005760 0.371117 0.025730 -0.036617 -0.047672 -0.001025 -0.067438 -0.031560 -0.054018 -0.074389 0.186190 -0.211464 -0.415271 0.365521 0.200006 -0.155688 -0.184132 -0.029724 -0.148875 -0.076240 -0.094706 -0.030940 -0.194433 -0.227734 -0.434955 -0.116267 0.211554 0.074855 -0.172769 -0.152145 0.074293 -0.269683 -0.478373 -0.660317 -0.171441 0.242776 0.105515 0.271221 -0.424122 0.298640 0.336551 -0.012781 -0.086879 0.476943 0.444797 -0.175382 0.243693 0.177222 0.103298 0.254564 0.034057 -0.146209 -0.375048 -0.116227 -0.111480 0.511867 -0.263282 0.069188 0.076043 -0.468528 0.378995 0.114598 0.074920 -0.083266 -0.295603 0.136499 -0.016703 0.076819 0.216965 -0.106177
。 -0.210341 0.132050 -0.340816 0.186595 -0.455480 0.074027 0.043720 -0.087960 0.356866 -0.276048 0.176333 -0.002214 -0.271268 -0.664604 -0.355971 0.275401 0.361494 0.024920 -0.407272 0.380777 0.363530 -0.048186 0.280849 0.218432 0.446813 -0.463046 0.740225 0.294594 0.105626 0.451014 0.074972 0.203755 -0.391486 0.518859 0.092960 -0.437924 0.399806 0.236845 -0.144855 0.439900 0.695260 -0.106420 0.155357 -0.489496 0.109090 -0.112640 0.527393 -0.103765 0.558727 -0.547462 -0.231442 0.085675 -0.134546 -0.461358 0.513728 -0.022823 0.131210 -0.119326 0.003786 0.407178 0.027697 -0.036354 -0.047270 -0.003741 -0.068895 -0.040636 -0.060540 -0.085756 0.206534 -0.229910 -0.449820 0.397503 0.221857 -0.165153 -0.195969 -0.033332 -0.157352 -0.076221 -0.105438 -0.034988 -0.212432 -0.244165 -0.474884 -0.124607 0.232021 0.079236 -0.185258 -0.167354 0.083788 -0.295788 -0.526055 -0.720195 -0.185303 0.263828 0.109758 0.289145 -0.466324 0.328530 0.363110 -0.012521 -0.093633 0.521600 0.482877 -0.191032 0.260194 0.194367 0.119139 0.279936 0.039950 -0.157612 -0.409504 -0.126717 -0.120598 0.555110 -0.288257 0.071895 0.084309 -0.515053 0.419312 0.120892 0.083747 -0.085762 -0.325586 0.143911 -0.019696 0.087246 0.231987 -0.118876
车 -0.144216 0.086537 -0.233308 0.126783 -0.308412 0.046937 0.026801 -0.062683 0.241081 -0.185363 0.116179 0.001113 -0.188043 -0.444585 -0.245139 0.181987 0.242833 0.022023 -0.280292 0.256792 0.244585 -0.034353 0.187481 0.149012 0.305394 -0.318902 0.501306 0.198254 0.071322 0.306191 0.050596 0.135615 -0.265646 0.353098 0.059258 -0.304151 0.270485 0.162622 -0.097954 0.295583 0.474728 -0.075800 0.104259 -0.333802 0.075625 -0.075880 0.353512 -0.070715 0.382533 -0.371037 -0.154486 0.058927 -0.091046 -0.310405 0.350898 -0.015658 0.092434 -0.078243 0.007673 0.276180 0.015710 -0.030604 -0.034784 -0.004696 -0.049921 -0.028747 -0.039918 -0.053893 0.139257 -0.159211 -0.311360 0.269569 0.150716 -0.111400 -0.132502 -0.018229 -0.109261 -0.057712 -0.068979 -0.029554 -0.141857 -0.166151 -0.321438 -0.090116 0.156024 0.057064 -0.127751 -0.111899 0.057220 -0.196251 -0.356806 -0.488053 -0.125151 0.174746 0.079764 0.195884 -0.310255 0.224937 0.248569 -0.007848 -0.068487 0.357394 0.329516 -0.125528 0.182284 0.130715 0.078539 0.184997 0.020487 -0.113104 -0.280691 -0.086588 -0.078568 0.377865 -0.192678 0.047913 0.054838 -0.348187 0.281586 0.083972 0.052198 -0.059621 -0.220098 0.095237 -0.010741 0.055769 0.162212 -0.077411
某 -0.187586 0.113201 -0.288587 0.164428 -0.391238 0.062876 0.033497 -0.080844 0.308209 -0.235391 0.148862 0.001092 -0.232251 -0.570348 -0.306782 0.237767 0.311307 0.023861 -0.357177 0.332393 0.311459 -0.037061 0.239851 0.188006 0.391883 -0.403577 0.639704 0.255339 0.094633 0.393377 0.067123 0.172893 -0.332480 0.449702 0.082181 -0.378975 0.346619 0.206734 -0.126515 0.384463 0.601827 -0.096755 0.132133 -0.425855 0.098469 -0.097545 0.449287 -0.085756 0.485956 -0.472018 -0.195698 0.078568 -0.118259 -0.395013 0.446671 -0.021006 0.113577 -0.098712 0.007323 0.349601 0.025076 -0.031785 -0.042407 -0.002360 -0.059186 -0.032204 -0.048388 -0.076184 0.173843 -0.196927 -0.389579 0.343090 0.192874 -0.146990 -0.168364 -0.029044 -0.133626 -0.066255 -0.090926 -0.027455 -0.180782 -0.210505 -0.411590 -0.109161 0.199880 0.071258 -0.164786 -0.143758 0.074435 -0.249546 -0.453786 -0.620060 -0.164369 0.227014 0.093529 0.250623 -0.402578 0.284327 0.311258 -0.006362 -0.080191 0.450378 0.421180 -0.162148 0.225913 0.171368 0.095784 0.241501 0.034801 -0.140331 -0.357688 -0.113883 -0.106002 0.485100 -0.246235 0.065471 0.077473 -0.444612 0.359673 0.101399 0.071913 -0.074841 -0.282440 0.129060 -0.018816 0.079788 0.203514 -0.103234
承运 -0.126278 0.075675 -0.197842 0.110347 -0.261438 0.040703 0.022135 -0.050796 0.206158 -0.159324 0.101248 -0.002637 -0.161300 -0.375709 -0.211172 0.152754 0.208913 0.019742 -0.233506 0.218814 0.207080 -0.029962 0.163206 0.122572 0.253844 -0.266197 0.421924 0.167739 0.059034 0.255576 0.038301 0.118956 -0.228043 0.292862 0.051092 -0.258539 0.231784 0.136377 -0.086783 0.256267 0.402059 -0.060535 0.086156 -0.281157 0.064693 -0.069819 0.304190 -0.058729 0.318937 -0.313450 -0.130349 0.047872 -0.072760 -0.258716 0.295520 -0.009084 0.074137 -0.069389 0.009191 0.229117 0.010675 -0.028285 -0.030839 -0.005364 -0.038308 -0.026420 -0.032559 -0.050933 0.115918 -0.138721 -0.264116 0.233651 0.121759 -0.096546 -0.116290 -0.021123 -0.092775 -0.045095 -0.059993 -0.023211 -0.117395 -0.139632 -0.272970 -0.076785 0.130460 0.049168 -0.111791 -0.095549 0.043941 -0.170253 -0.303970 -0.411069 -0.102142 0.146904 0.065308 0.167823 -0.265827 0.192249 0.206487 -0.007351 -0.056530 0.302681 0.283055 -0.110308 0.151109 0.115837 0.065580 0.162930 0.020882 -0.094411 -0.232195 -0.072695 -0.066951 0.320916 -0.168388 0.040344 0.048131 -0.293391 0.244072 0.073263 0.045121 -0.056004 -0.188119 0.085297 -0.006796 0.050970 0.136651 -0.066200
一 -0.148317 0.095548 -0.236782 0.136957 -0.324001 0.055505 0.030268 -0.061236 0.245519 -0.194991 0.121977 -0.002030 -0.189030 -0.465416 -0.252847 0.191865 0.254479 0.021586 -0.289961 0.270404 0.251846 -0.033810 0.196671 0.154872 0.316700 -0.328780 0.521439 0.209449 0.077440 0.320523 0.055595 0.143312 -0.273568 0.363092 0.060720 -0.308833 0.287003 0.165171 -0.103852 0.306783 0.486785 -0.075595 0.112623 -0.342464 0.080421 -0.081466 0.370138 -0.069506 0.391707 -0.386752 -0.159161 0.062733 -0.091884 -0.323539 0.363114 -0.013157 0.095025 -0.084578 0.002837 0.282563 0.015260 -0.029500 -0.031349 0.000714 -0.048595 -0.023985 -0.043825 -0.061743 0.145260 -0.167753 -0.321220 0.279580 0.157044 -0.116413 -0.135576 -0.021678 -0.116153 -0.055944 -0.071828 -0.027268 -0.149221 -0.175836 -0.330555 -0.093721 0.159987 0.057971 -0.136588 -0.116589 0.058179 -0.203543 -0.364427 -0.503052 -0.130093 0.179981 0.079493 0.204833 -0.324706 0.234148 0.255537 -0.007032 -0.069744 0.372307 0.337887 -0.134682 0.187404 0.137372 0.082373 0.193360 0.023306 -0.115519 -0.288957 -0.090310 -0.085084 0.387913 -0.199918 0.053765 0.059935 -0.364171 0.297541 0.084222 0.057295 -0.065902 -0.230621 0.101359 -0.008852 0.060464 0.161165 -0.080128
合同 -0.165830 0.105111 -0.265486 0.145578 -0.362738 0.059277 0.031762 -0.067115 0.275258 -0.214670 0.135815 -0.000757 -0.216695 -0.518808 -0.279963 0.211946 0.285747 0.023018 -0.324180 0.294786 0.279978 -0.033281 0.218661 0.171323 0.350351 -0.367481 0.575053 0.227907 0.087157 0.356949 0.059829 0.160472 -0.306446 0.406349 0.071451 -0.343283 0.317836 0.187095 -0.110822 0.348379 0.546241 -0.084746 0.126398 -0.385558 0.087395 -0.087699 0.414509 -0.082891 0.436452 -0.425279 -0.176540 0.068857 -0.101317 -0.359337 0.407226 -0.020038 0.102822 -0.088875 0.009881 0.315002 0.016567 -0.034936 -0.042495 -0.005118 -0.056147 -0.030362 -0.048260 -0.063295 0.157119 -0.180529 -0.354504 0.314957 0.175849 -0.132888 -0.155571 -0.023835 -0.123488 -0.063495 -0.080776 -0.030004 -0.161695 -0.193362 -0.370743 -0.103373 0.183365 0.066005 -0.149932 -0.127489 0.069392 -0.227211 -0.410390 -0.564812 -0.149085 0.201057 0.087749 0.227768 -0.360677 0.259245 0.282141 -0.006509 -0.076428 0.410927 0.382409 -0.151085 0.207108 0.155560 0.089896 0.219282 0.029252 -0.125005 -0.321394 -0.103634 -0.095847 0.433165 -0.222351 0.058301 0.064064 -0.404507 0.329312 0.099782 0.061510 -0.070296 -0.252366 0.115697 -0.014693 0.066525 0.182511 -0.095493
他 -0.166864 0.106074 -0.264240 0.147306 -0.361796 0.055983 0.029969 -0.073056 0.280427 -0.211691 0.138261 0.000071 -0.217112 -0.522830 -0.285614 0.212049 0.287101 0.022220 -0.320220 0.302958 0.290052 -0.037183 0.220250 0.170280 0.355413 -0.368222 0.580745 0.233294 0.086846 0.357461 0.060191 0.157030 -0.304708 0.409917 0.070082 -0.350617 0.317750 0.190960 -0.115061 0.344302 0.544942 -0.088424 0.125288 -0.386452 0.088160 -0.093686 0.408850 -0.084786 0.440541 -0.432190 -0.179796 0.071037 -0.102961 -0.361019 0.408464 -0.019867 0.097734 -0.095737 0.004379 0.321103 0.022914 -0.031021 -0.037266 0.001875 -0.057320 -0.029300 -0.043708 -0.067815 0.159568 -0.180018 -0.352686 0.315292 0.177457 -0.128113 -0.156986 -0.022507 -0.125747 -0.065671 -0.076870 -0.031974 -0.164956 -0.189409 -0.371721 -0.102053 0.178437 0.059399 -0.152890 -0.132465 0.067710 -0.232516 -0.410418 -0.570877 -0.143913 0.208062 0.092917 0.230205 -0.367280 0.259455 0.287421 -0.010054 -0.072968 0.413441 0.382558 -0.151089 0.206356 0.155162 0.093860 0.220434 0.025914 -0.130381 -0.327463 -0.101382 -0.093207 0.436594 -0.223408 0.060817 0.067710 -0.406538 0.329979 0.092174 0.068337 -0.067482 -0.253661 0.111220 -0.016350 0.071924 0.181921 -0.096574
刘某 -0.142646 0.092946 -0.230041 0.127347 -0.315118 0.054453 0.027271 -0.064481 0.241986 -0.189687 0.119755 0.000432 -0.186911 -0.459118 -0.244817 0.186413 0.246556 0.016526 -0.283833 0.265748 0.252443 -0.029886 0.192148 0.149174 0.305525 -0.317654 0.508295 0.200782 0.073488 0.312125 0.047374 0.138940 -0.268606 0.354260 0.059360 -0.301264 0.277023 0.164211 -0.094711 0.307560 0.480129 -0.077929 0.108973 -0.333956 0.078034 -0.083312 0.362186 -0.072711 0.386252 -0.373155 -0.154563 0.056602 -0.092776 -0.317184 0.357661 -0.015319 0.088007 -0.082475 0.003714 0.280138 0.021408 -0.029079 -0.031750 -0.000698 -0.051484 -0.026079 -0.042338 -0.055843 0.137457 -0.160980 -0.309569 0.272690 0.153348 -0.114299 -0.137246 -0.023319 -0.110540 -0.053617 -0.072576 -0.028053 -0.143833 -0.168650 -0.328222 -0.084308 0.159719 0.052860 -0.131918 -0.115894 0.054606 -0.201793 -0.362976 -0.494319 -0.129964 0.182204 0.081273 0.204353 -0.321266 0.231508 0.254153 -0.008578 -0.062797 0.360044 0.333480 -0.134016 0.183920 0.130611 0.081980 0.191498 0.027243 -0.113312 -0.283244 -0.087068 -0.086030 0.382812 -0.197370 0.050711 0.061750 -0.354484 0.290561 0.079991 0.059192 -0.058572 -0.225235 0.103419 -0.014989 0.063791 0.157418 -0.083661
2012年 -0.187380 0.115617 -0.295444 0.164496 -0.397672 0.061115 0.039816 -0.080350 0.307210 -0.237714 0.153224 0.002048 -0.237797 -0.578324 -0.314692 0.237052 0.320097 0.021029 -0.360889 0.338348 0.322490 -0.042742 0.245245 0.191775 0.392857 -0.404809 0.645000 0.257925 0.098413 0.398136 0.069785 0.177897 -0.335651 0.452423 0.083115 -0.382840 0.354346 0.211330 -0.122225 0.388758 0.609505 -0.099300 0.134254 -0.430306 0.097636 -0.104122 0.455987 -0.089443 0.492824 -0.477782 -0.200857 0.072983 -0.121332 -0.403056 0.453340 -0.019607 0.111912 -0.106084 0.008161 0.358260 0.023887 -0.030780 -0.039522 -0.006045 -0.061113 -0.033118 -0.053281 -0.074684 0.174832 -0.202657 -0.400220 0.354290 0.194895 -0.143330 -0.175746 -0.026285 -0.134804 -0.072026 -0.085471 -0.034110 -0.185695 -0.214399 -0.415186 -0.108720 0.204719 0.066057 -0.161494 -0.144858 0.077377 -0.254083 -0.461043 -0.631343 -0.166476 0.225789 0.100672 0.259476 -0.402494 0.293490 0.319407 -0.011843 -0.079392 0.459925 0.426946 -0.164598 0.227863 0.167254 0.101220 0.245711 0.035054 -0.141037 -0.363622 -0.115228 -0.103762 0.491288 -0.255208 0.063395 0.076192 -0.451001 0.364029 0.109658 0.073367 -0.079415 -0.281944 0.125580 -0.016670 0.077956 0.206082 -0.104649
货运 -0.121677 0.072410 -0.191152 0.105647 -0.261731 0.037322 0.021751 -0.052364 0.201902 -0.149329 0.101958 -0.003368 -0.152433 -0.370749 -0.204413 0.154851 0.201446 0.019232 -0.234541 0.209880 0.198995 -0.022974 0.160764 0.118260 0.252273 -0.265934 0.416383 0.164062 0.056845 0.250692 0.039203 0.117639 -0.221961 0.291789 0.054731 -0.250370 0.228873 0.137387 -0.084236 0.243882 0.389235 -0.057957 0.086678 -0.273707 0.062164 -0.066748 0.298253 -0.057420 0.310429 -0.303544 -0.126082 0.048513 -0.072163 -0.254128 0.291424 -0.009262 0.077578 -0.064125 0.007214 0.225776 0.015474 -0.026702 -0.031873 -0.003574 -0.041026 -0.026231 -0.028077 -0.046632 0.116110 -0.134151 -0.254899 0.228643 0.119400 -0.094468 -0.107857 -0.015846 -0.088737 -0.047397 -0.056618 -0.022842 -0.118909 -0.139206 -0.265928 -0.075837 0.131650 0.048850 -0.103442 -0.088192 0.048245 -0.167948 -0.297688 -0.399193 -0.104493 0.147825 0.060882 0.159904 -0.254891 0.185036 0.204747 -0.003607 -0.054562 0.295664 0.273712 -0.102532 0.150062 0.113670 0.061508 0.154507 0.017122 -0.086756 -0.232668 -0.071257 -0.070186 0.310597 -0.157141 0.040483 0.045468 -0.290401 0.233797 0.070202 0.044457 -0.052390 -0.183403 0.080605 -0.008979 0.045679 0.134391 -0.070101
煤 -0.170710 0.106907 -0.268099 0.147923 -0.356363 0.056239 0.030913 -0.073669 0.275739 -0.217863 0.139034 -0.003092 -0.210820 -0.521136 -0.283454 0.209268 0.283504 0.025274 -0.322690 0.297471 0.284744 -0.034149 0.216237 0.176051 0.353285 -0.363840 0.576805 0.234567 0.082228 0.350365 0.059557 0.157863 -0.305607 0.407257 0.069713 -0.345520 0.314642 0.189929 -0.109743 0.347744 0.544002 -0.088464 0.125301 -0.386025 0.089592 -0.090437 0.408792 -0.084793 0.441638 -0.426735 -0.181723 0.068945 -0.105190 -0.356625 0.404376 -0.015827 0.096918 -0.094181 0.006682 0.321175 0.020563 -0.033041 -0.039733 -0.003404 -0.052655 -0.033627 -0.046710 -0.063260 0.162843 -0.185048 -0.354456 0.316362 0.169666 -0.131185 -0.155145 -0.023623 -0.123285 -0.060827 -0.081371 -0.027321 -0.163724 -0.192853 -0.371090 -0.095892 0.182556 0.061232 -0.147546 -0.128530 0.068386 -0.227600 -0.413781 -0.565747 -0.144181 0.209511 0.092308 0.231390 -0.364157 0.261059 0.282500 -0.013055 -0.073047 0.410957 0.382352 -0.151998 0.209051 0.149989 0.094941 0.212973 0.028797 -0.128107 -0.324637 -0.101363 -0.097825 0.436270 -0.228979 0.062798 0.070821 -0.405876 0.327316 0.096009 0.060546 -0.071061 -0.255832 0.111198 -0.010939 0.066656 0.185079 -0.091134
西安 -0.158174 0.099601 -0.250808 0.139252 -0.341657 0.053828 0.030046 -0.066794 0.268283 -0.208222 0.130287 0.003993 -0.202854 -0.495066 -0.271414 0.203425 0.273782 0.022042 -0.307112 0.286492 0.272586 -0.030320 0.206123 0.160893 0.335702 -0.350295 0.546171 0.217848 0.084809 0.338142 0.057816 0.151666 -0.293704 0.389241 0.067153 -0.328202 0.302258 0.175830 -0.107182 0.329086 0.515280 -0.079753 0.119946 -0.364984 0.083962 -0.087106 0.387875 -0.073711 0.416794 -0.404482 -0.169038 0.068668 -0.101439 -0.345188 0.382240 -0.019741 0.098568 -0.090069 0.005544 0.299640 0.020952 -0.024633 -0.040351 0.001929 -0.054780 -0.027245 -0.040199 -0.059245 0.155154 -0.173167 -0.334315 0.298065 0.167142 -0.129687 -0.149853 -0.021030 -0.120824 -0.062221 -0.075047 -0.024537 -0.155547 -0.185734 -0.355366 -0.091043 0.169841 0.056463 -0.144366 -0.124528 0.064141 -0.222097 -0.391427 -0.539347 -0.139915 0.193278 0.082567 0.218125 -0.343688 0.246525 0.272637 -0.011288 -0.069304 0.391285 0.360836 -0.143082 0.194906 0.144481 0.090774 0.202534 0.024560 -0.122297 -0.309881 -0.092993 -0.089946 0.417159 -0.215971 0.058235 0.061041 -0.384275 0.315432 0.093570 0.059860 -0.067056 -0.240990 0.105421 -0.009707 0.068402 0.176713 -0.088445
签订 -0.141744 0.083533 -0.218455 0.116602 -0.296322 0.050743 0.028905 -0.056131 0.224445 -0.176852 0.113526 0.000075 -0.172852 -0.423212 -0.233003 0.174666 0.236668 0.017807 -0.263045 0.246339 0.231266 -0.028759 0.176450 0.141364 0.282871 -0.302533 0.466883 0.190600 0.066683 0.288674 0.046825 0.131938 -0.252748 0.326773 0.061261 -0.279455 0.258450 0.151234 -0.091659 0.278283 0.442865 -0.067590 0.100749 -0.313203 0.069474 -0.070925 0.332949 -0.069885 0.360960 -0.351480 -0.143350 0.060004 -0.087426 -0.294165 0.334143 -0.014319 0.085489 -0.071088 0.008150 0.254514 0.015787 -0.025959 -0.035881 0.001360 -0.045416 -0.025028 -0.039334 -0.057202 0.131533 -0.148397 -0.287501 0.256203 0.139453 -0.110366 -0.125858 -0.021853 -0.100369 -0.054810 -0.060129 -0.026250 -0.137019 -0.161441 -0.298142 -0.083423 0.150646 0.051619 -0.119652 -0.100552 0.054504 -0.185511 -0.338395 -0.458793 -0.118183 0.162606 0.069705 0.188084 -0.293619 0.215192 0.232598 -0.005393 -0.064817 0.336523 0.311662 -0.124778 0.170265 0.122203 0.070898 0.177353 0.025733 -0.103124 -0.260373 -0.082367 -0.076960 0.352071 -0.183036 0.047723 0.055005 -0.329980 0.270806 0.080655 0.054718 -0.060685 -0.208992 0.089001 -0.012517 0.060326 0.151006 -0.074922
与 -0.149628 0.092209 -0.238276 0.130360 -0.320794 0.052746 0.030563 -0.061134 0.245031 -0.190465 0.127627 0.002820 -0.192873 -0.462886 -0.252395 0.190487 0.255189 0.022544 -0.289720 0.267627 0.252788 -0.034040 0.192472 0.151826 0.312190 -0.326883 0.515661 0.208916 0.077913 0.319804 0.050938 0.146117 -0.273966 0.359969 0.060034 -0.313185 0.285287 0.165327 -0.103761 0.312584 0.486405 -0.076481 0.110341 -0.346278 0.078558 -0.083594 0.370582 -0.073926 0.395669 -0.386093 -0.158345 0.059784 -0.094547 -0.320622 0.361710 -0.015087 0.088914 -0.085478 0.007521 0.280092 0.016363 -0.026529 -0.035593 -0.000588 -0.050254 -0.024992 -0.042401 -0.061244 0.142220 -0.162041 -0.321290 0.278085 0.156001 -0.113566 -0.139720 -0.019090 -0.111282 -0.057351 -0.071318 -0.025207 -0.149600 -0.175765 -0.333108 -0.091728 0.161799 0.058017 -0.135619 -0.112054 0.057387 -0.204049 -0.371617 -0.507044 -0.130611 0.179358 0.077093 0.203178 -0.320584 0.230145 0.255275 -0.006440 -0.066962 0.367745 0.339367 -0.136274 0.182707 0.140833 0.077338 0.192854 0.024377 -0.112653 -0.287127 -0.090590 -0.084198 0.394471 -0.198751 0.054858 0.061445 -0.362163 0.291353 0.089141 0.060612 -0.064216 -0.226350 0.104958 -0.008784 0.059725 0.164384 -0.085962
榆阳区 -0.141578 0.088076 -0.227323 0.128330 -0.302886 0.047667 0.029558 -0.056936 0.235984 -0.183156 0.117483 0.002802 -0.182007 -0.433162 -0.234258 0.178413 0.240743 0.022517 -0.274486 0.253524 0.235600 -0.027732 0.182000 0.147487 0.299809 -0.310147 0.490395 0.196952 0.074539 0.294737 0.051299 0.136182 -0.258608 0.341203 0.059536 -0.290834 0.265634 0.158700 -0.096194 0.293941 0.460317 -0.070633 0.104430 -0.321550 0.072267 -0.073686 0.347777 -0.066851 0.372298 -0.356565 -0.154635 0.059404 -0.086835 -0.302516 0.344665 -0.011894 0.086976 -0.080538 0.006240 0.262729 0.013470 -0.024915 -0.031934 -0.004536 -0.045263 -0.021509 -0.036163 -0.054948 0.131376 -0.155328 -0.297228 0.266097 0.148010 -0.107709 -0.133942 -0.022545 -0.104185 -0.052996 -0.068102 -0.019971 -0.142076 -0.163608 -0.309167 -0.087655 0.153286 0.051652 -0.124728 -0.104704 0.053637 -0.189703 -0.342388 -0.477714 -0.124957 0.174024 0.073565 0.193976 -0.305379 0.218288 0.237849 -0.009040 -0.062350 0.342517 0.324504 -0.128421 0.174670 0.131376 0.072213 0.184008 0.020457 -0.107905 -0.270297 -0.080837 -0.082299 0.367511 -0.191292 0.053570 0.053089 -0.340376 0.276716 0.083287 0.055666 -0.061971 -0.217669 0.099362 -0.009532 0.062124 0.153530 -0.078715
驾驶 -0.120958 0.078890 -0.191832 0.106380 -0.260038 0.040006 0.020012 -0.051714 0.201549 -0.156759 0.099024 0.001856 -0.154857 -0.374587 -0.205074 0.151435 0.209591 0.016459 -0.231793 0.218967 0.203463 -0.023269 0.157801 0.126541 0.251239 -0.266395 0.417562 0.167982 0.062185 0.259273 0.040870 0.114783 -0.224538 0.290330 0.048619 -0.255910 0.230569 0.135439 -0.084418 0.254038 0.397288 -0.065182 0.087627 -0.275014 0.062270 -0.065705 0.303230 -0.058114 0.314780 -0.308080 -0.131557 0.046502 -0.075258 -0.263332 0.296970 -0.007944 0.072449 -0.063483 0.001355 0.232271 0.011492 -0.021517 -0.030565 -0.005353 -0.038435 -0.018377 -0.034535 -0.045572 0.120164 -0.136669 -0.260040 0.226650 0.120651 -0.094695 -0.108435 -0.015331 -0.095017 -0.042555 -0.054281 -0.023822 -0.119862 -0.142946 -0.269408 -0.074562 0.135074 0.047354 -0.104873 -0.095468 0.047999 -0.163045 -0.296098 -0.406731 -0.103895 0.151475 0.066387 0.167640 -0.261284 0.188760 0.209873 -0.006896 -0.055772 0.294972 0.274098 -0.103971 0.152534 0.114110 0.062053 0.158601 0.021282 -0.091892 -0.231492 -0.075753 -0.068295 0.315055 -0.166199 0.046980 0.047111 -0.289240 0.236389 0.069863 0.042625 -0.051548 -0.183958 0.080193 -0.011256 0.046401 0.129618 -0.064741
吨 -0.172618 0.107268 -0.278818 0.157830 -0.375137 0.058461 0.029968 -0.077635 0.291471 -0.226210 0.145529 0.004299 -0.227028 -0.540396 -0.294034 0.222076 0.299494 0.023014 -0.332145 0.313309 0.292519 -0.034450 0.231459 0.180429 0.364389 -0.376892 0.602062 0.238347 0.084017 0.367515 0.058652 0.162111 -0.312714 0.416723 0.074341 -0.359831 0.325817 0.197609 -0.113792 0.361178 0.566345 -0.091636 0.130600 -0.397803 0.090496 -0.097691 0.429627 -0.080110 0.455568 -0.442842 -0.182977 0.068944 -0.107165 -0.371542 0.424828 -0.019985 0.103766 -0.093636 0.007820 0.329897 0.022327 -0.029081 -0.039699 0.000844 -0.055042 -0.035020 -0.044314 -0.063733 0.169260 -0.192363 -0.372942 0.326667 0.183882 -0.133965 -0.162211 -0.027870 -0.126759 -0.062115 -0.079687 -0.033622 -0.173246 -0.199522 -0.381665 -0.106876 0.186880 0.065670 -0.157775 -0.138076 0.066413 -0.238444 -0.427133 -0.583428 -0.155423 0.210162 0.088216 0.240948 -0.379618 0.269604 0.294992 -0.010904 -0.075625 0.431261 0.391671 -0.155820 0.214365 0.155369 0.091847 0.228043 0.029265 -0.131509 -0.333769 -0.107734 -0.095309 0.454573 -0.239153 0.058129 0.071282 -0.417713 0.343803 0.102494 0.069741 -0.075326 -0.262123 0.117979 -0.013860 0.072383 0.186329 -0.095939
信息 -0.142927 0.091183 -0.229124 0.126099 -0.309616 0.047860 0.026598 -0.059292 0.236760 -0.185880 0.117763 0.001702 -0.183050 -0.445869 -0.239172 0.180563 0.248478 0.017502 -0.280777 0.258998 0.242996 -0.030362 0.192228 0.146211 0.301431 -0.313406 0.497938 0.194952 0.070553 0.305154 0.052908 0.141302 -0.261233 0.348533 0.063188 -0.299420 0.272955 0.160006 -0.099274 0.294212 0.467070 -0.069877 0.109201 -0.327383 0.076425 -0.080913 0.353676 -0.067380 0.381425 -0.370928 -0.155482 0.062712 -0.091795 -0.307047 0.348463 -0.012533 0.091038 -0.081479 0.007592 0.271764 0.014955 -0.029624 -0.034581 -0.005869 -0.045015 -0.028753 -0.035609 -0.057900 0.136269 -0.160303 -0.309361 0.272769 0.148563 -0.113372 -0.136239 -0.018647 -0.103783 -0.051705 -0.064777 -0.025390 -0.145223 -0.163287 -0.320921 -0.088697 0.156896 0.056330 -0.127390 -0.106422 0.056858 -0.194208 -0.351178 -0.485094 -0.127992 0.175634 0.073919 0.194435 -0.309402 0.219932 0.247424 -0.006802 -0.060964 0.353645 0.332430 -0.125435 0.176288 0.131090 0.080036 0.189280 0.019539 -0.107855 -0.280809 -0.085152 -0.081451 0.371722 -0.195178 0.054927 0.053846 -0.348962 0.282899 0.086911 0.055048 -0.060095 -0.223005 0.095583 -0.009480 0.059925 0.159948 -0.077543
部 -0.125247 0.077472 -0.194330 0.112190 -0.267839 0.044459 0.023206 -0.051381 0.205584 -0.161411 0.101625 -0.000347 -0.160968 -0.384056 -0.212750 0.159520 0.209291 0.020512 -0.238127 0.221778 0.207098 -0.026994 0.158806 0.126366 0.262962 -0.272773 0.430651 0.171777 0.061456 0.259267 0.043479 0.117161 -0.226517 0.300111 0.049137 -0.255615 0.230275 0.142173 -0.083593 0.253806 0.399630 -0.063525 0.087811 -0.287347 0.066558 -0.067329 0.305224 -0.061341 0.325384 -0.317842 -0.133617 0.050075 -0.073039 -0.266560 0.304085 -0.009946 0.079614 -0.068792 0.008471 0.232345 0.016260 -0.024781 -0.028985 -0.003467 -0.042581 -0.023751 -0.033635 -0.049469 0.119630 -0.134692 -0.264883 0.233857 0.125878 -0.092765 -0.118333 -0.016445 -0.093625 -0.045081 -0.058651 -0.022206 -0.120617 -0.140982 -0.270914 -0.079242 0.136794 0.050392 -0.111579 -0.098663 0.047877 -0.172689 -0.304481 -0.417792 -0.108021 0.147475 0.066414 0.165584 -0.263800 0.194424 0.213717 -0.005100 -0.054230 0.304083 0.281550 -0.112100 0.155001 0.114168 0.067159 0.161625 0.024005 -0.095531 -0.240157 -0.076904 -0.070960 0.325457 -0.163108 0.041205 0.050476 -0.296431 0.244727 0.070347 0.047183 -0.051259 -0.187738 0.083366 -0.011117 0.054375 0.134221 -0.069247
和 -0.130360 0.085987 -0.211448 0.122003 -0.288877 0.044305 0.029466 -0.052920 0.218956 -0.168559 0.113374 0.003526 -0.168119 -0.418355 -0.221275 0.172727 0.226352 0.017146 -0.251874 0.242038 0.230914 -0.031651 0.175897 0.140855 0.284382 -0.289459 0.463901 0.187356 0.066105 0.285957 0.047004 0.127249 -0.246927 0.320819 0.053863 -0.277952 0.254679 0.147742 -0.085260 0.273958 0.432349 -0.072061 0.100022 -0.306539 0.074001 -0.072806 0.331961 -0.063503 0.350226 -0.344730 -0.142635 0.058933 -0.087736 -0.288330 0.321911 -0.013674 0.082943 -0.073889 0.007964 0.255996 0.016702 -0.020351 -0.028830 0.000373 -0.043287 -0.020597 -0.035930 -0.048991 0.129533 -0.147925 -0.282291 0.252125 0.141467 -0.105726 -0.118964 -0.020763 -0.099008 -0.051330 -0.064578 -0.019270 -0.130819 -0.156429 -0.299835 -0.077358 0.146918 0.049232 -0.116554 -0.104360 0.055561 -0.179201 -0.325133 -0.454696 -0.114541 0.165737 0.070897 0.183369 -0.288178 0.211189 0.225359 -0.005674 -0.061482 0.324108 0.305370 -0.122858 0.162500 0.124024 0.071662 0.173739 0.023291 -0.103105 -0.258299 -0.079741 -0.074265 0.348402 -0.182359 0.050733 0.052782 -0.324033 0.259704 0.074494 0.052499 -0.056101 -0.199244 0.088415 -0.013663 0.054106 0.147880 -0.076198
将 -0.139835 0.088406 -0.223689 0.123898 -0.298409 0.051266 0.028641 -0.059049 0.234485 -0.176451 0.114234 0.001741 -0.180589 -0.433130 -0.237202 0.177075 0.235698 0.022783 -0.263364 0.252823 0.237608 -0.030370 0.183252 0.147011 0.294558 -0.300510 0.479193 0.194269 0.074034 0.296915 0.048078 0.132896 -0.255152 0.339507 0.055454 -0.287679 0.259858 0.154693 -0.090220 0.288855 0.453417 -0.070471 0.099765 -0.317182 0.075589 -0.077867 0.344588 -0.064618 0.365572 -0.355106 -0.152036 0.059712 -0.089690 -0.302815 0.340264 -0.013455 0.085354 -0.077285 0.006968 0.263028 0.016289 -0.028284 -0.032778 -0.001429 -0.042657 -0.027493 -0.040557 -0.058184 0.130228 -0.147896 -0.295295 0.263669 0.147367 -0.110099 -0.124853 -0.022711 -0.107372 -0.049204 -0.067460 -0.024042 -0.136565 -0.160110 -0.306318 -0.081616 0.148157 0.048363 -0.124471 -0.106361 0.052944 -0.190978 -0.343187 -0.474161 -0.125051 0.169659 0.071315 0.189635 -0.300595 0.212875 0.235704 -0.005503 -0.065225 0.345380 0.315030 -0.125146 0.173778 0.126328 0.075655 0.178221 0.023425 -0.105062 -0.270506 -0.080325 -0.082065 0.364568 -0.187165 0.051564 0.058303 -0.340587 0.276901 0.079585 0.049786 -0.059113 -0.207221 0.093916 -0.015028 0.060951 0.154555 -0.080623
被 -0.152978 0.100247 -0.246732 0.135757 -0.334921 0.053707 0.032257 -0.064953 0.260113 -0.197745 0.125962 0.002375 -0.199270 -0.488394 -0.263616 0.201876 0.265717 0.018853 -0.298465 0.278093 0.266349 -0.030331 0.200731 0.156536 0.329388 -0.343309 0.540644 0.215671 0.082524 0.330683 0.057952 0.145090 -0.286844 0.377188 0.068872 -0.324493 0.294858 0.172909 -0.106195 0.326259 0.513130 -0.083668 0.118549 -0.357538 0.079151 -0.083427 0.386816 -0.076338 0.413543 -0.402865 -0.167607 0.066459 -0.102027 -0.335717 0.375744 -0.012421 0.094663 -0.089385 0.002675 0.296859 0.015648 -0.029390 -0.037987 0.000543 -0.054679 -0.028069 -0.044341 -0.061008 0.152783 -0.171538 -0.327335 0.292953 0.160378 -0.126305 -0.144487 -0.025595 -0.119057 -0.056049 -0.074829 -0.023841 -0.154540 -0.182148 -0.346981 -0.093485 0.165988 0.055570 -0.134539 -0.119307 0.060400 -0.217528 -0.381908 -0.524718 -0.134410 0.194864 0.083903 0.217681 -0.339975 0.243983 0.266464 -0.009804 -0.073400 0.386771 0.353528 -0.137556 0.195376 0.143423 0.085851 0.206177 0.024821 -0.114563 -0.297648 -0.094025 -0.088663 0.407541 -0.211600 0.052930 0.062356 -0.378119 0.305986 0.090683 0.062355 -0.060917 -0.239542 0.102560 -0.009727 0.060285 0.173362 -0.085142
张 -0.158357 0.098750 -0.242921 0.138157 -0.330182 0.056599 0.031435 -0.064329 0.262011 -0.200216 0.129115 0.000562 -0.194904 -0.481448 -0.259876 0.197946 0.266750 0.024708 -0.297414 0.277503 0.267379 -0.030970 0.205202 0.157905 0.326254 -0.335848 0.537715 0.216257 0.075910 0.330226 0.052031 0.149719 -0.279221 0.376466 0.063254 -0.321636 0.293274 0.175058 -0.100827 0.325757 0.509753 -0.076312 0.113614 -0.356379 0.081641 -0.081372 0.381677 -0.076368 0.407194 -0.395038 -0.167332 0.061477 -0.100976 -0.337224 0.373994 -0.019557 0.093137 -0.089256 0.001537 0.292023 0.015039 -0.025153 -0.034916 -0.004826 -0.049684 -0.029166 -0.044084 -0.062801 0.146058 -0.168284 -0.330572 0.294148 0.160164 -0.125530 -0.141803 -0.020019 -0.114256 -0.058247 -0.072647 -0.029080 -0.153587 -0.175334 -0.343602 -0.095672 0.169171 0.058909 -0.136756 -0.119033 0.058720 -0.214657 -0.384802 -0.528099 -0.136374 0.186181 0.084893 0.216450 -0.340042 0.244507 0.265350 -0.005731 -0.066565 0.377851 0.356136 -0.144073 0.190565 0.139407 0.080572 0.201358 0.028289 -0.117788 -0.297163 -0.096670 -0.088774 0.404290 -0.209531 0.058261 0.063867 -0.377414 0.306695 0.086730 0.058809 -0.060326 -0.235887 0.103083 -0.012341 0.067635 0.168079 -0.084356
） -0.156050 0.095048 -0.248218 0.137660 -0.337442 0.054823 0.030878 -0.066896 0.262925 -0.197608 0.126126 0.001765 -0.200855 -0.484789 -0.264589 0.198195 0.264331 0.022502 -0.302138 0.283780 0.267574 -0.032997 0.200686 0.159201 0.329838 -0.344935 0.539135 0.213788 0.081734 0.328810 0.058914 0.149615 -0.281693 0.381250 0.064704 -0.327441 0.295186 0.178373 -0.104728 0.326788 0.508984 -0.077970 0.113662 -0.360487 0.079274 -0.087852 0.388189 -0.073240 0.414517 -0.400534 -0.171539 0.068147 -0.101582 -0.339657 0.380092 -0.019824 0.093289 -0.086393 0.003366 0.296653 0.021709 -0.032156 -0.034717 0.000640 -0.048112 -0.030949 -0.043272 -0.065462 0.152424 -0.169699 -0.336056 0.295771 0.162014 -0.121502 -0.146172 -0.022498 -0.114699 -0.061007 -0.072197 -0.023685 -0.155621 -0.177694 -0.342781 -0.096754 0.167128 0.059075 -0.136982 -0.121309 0.063057 -0.217856 -0.385888 -0.530716 -0.135468 0.189143 0.081455 0.211530 -0.339680 0.242305 0.265941 -0.004293 -0.068402 0.385183 0.352412 -0.141596 0.189064 0.140431 0.088602 0.202624 0.024404 -0.119344 -0.303612 -0.091572 -0.085995 0.407362 -0.208209 0.053962 0.063536 -0.373342 0.309495 0.089629 0.058455 -0.067626 -0.236826 0.109412 -0.010823 0.063068 0.172873 -0.090596
（ -0.141118 0.087913 -0.223172 0.130525 -0.304386 0.050005 0.025799 -0.062962 0.241485 -0.181957 0.118680 -0.003833 -0.186618 -0.448685 -0.243842 0.185135 0.245405 0.017423 -0.274665 0.258013 0.248438 -0.032841 0.190698 0.147065 0.304420 -0.310778 0.497365 0.200396 0.075243 0.305429 0.048956 0.133530 -0.257854 0.351456 0.060765 -0.297851 0.275610 0.163743 -0.091859 0.300794 0.468028 -0.072915 0.105714 -0.327870 0.074601 -0.081197 0.349652 -0.070612 0.375695 -0.367252 -0.158448 0.062138 -0.092835 -0.312447 0.350311 -0.016870 0.088847 -0.079476 0.008509 0.275792 0.016222 -0.030720 -0.032721 0.000009 -0.043510 -0.025011 -0.038283 -0.054866 0.136791 -0.156507 -0.305774 0.267264 0.150686 -0.116166 -0.132473 -0.023452 -0.103629 -0.055133 -0.069238 -0.020737 -0.142283 -0.167044 -0.317107 -0.083631 0.155952 0.048778 -0.127698 -0.107066 0.058872 -0.192719 -0.355082 -0.488807 -0.122331 0.175533 0.078894 0.194744 -0.314841 0.221249 0.245675 -0.009090 -0.061774 0.354455 0.329288 -0.131321 0.172764 0.133611 0.074182 0.183469 0.026743 -0.107371 -0.279678 -0.085928 -0.077256 0.374825 -0.192437 0.051358 0.056249 -0.347012 0.279288 0.077868 0.054733 -0.054695 -0.216859 0.098338 -0.012574 0.062471 0.158095 -0.082954
货主 -0.111601 0.066883 -0.169905 0.096021 -0.230616 0.034035 0.016673 -0.043982 0.184000 -0.137084 0.093119 -0.000060 -0.136087 -0.333223 -0.184865 0.139858 0.188700 0.016646 -0.210010 0.194574 0.181857 -0.025550 0.146807 0.114693 0.224923 -0.240377 0.379443 0.153216 0.051888 0.229578 0.038413 0.101000 -0.198578 0.263692 0.048963 -0.224181 0.208799 0.122829 -0.073253 0.220754 0.351204 -0.056975 0.079638 -0.249054 0.058146 -0.055924 0.271898 -0.054905 0.283729 -0.277988 -0.117647 0.046056 -0.065810 -0.237073 0.265587 -0.007208 0.070617 -0.061180 0.006559 0.202692 0.011721 -0.024298 -0.029405 0.001462 -0.037441 -0.019635 -0.030154 -0.042319 0.106809 -0.120258 -0.231112 0.207842 0.108425 -0.083244 -0.101241 -0.017689 -0.079027 -0.037773 -0.047824 -0.021864 -0.107263 -0.128379 -0.238794 -0.068253 0.118764 0.041007 -0.099624 -0.084996 0.041288 -0.150140 -0.265741 -0.364121 -0.092982 0.135440 0.055895 0.145849 -0.238778 0.167922 0.184176 -0.003007 -0.046775 0.270920 0.246101 -0.097808 0.135770 0.103712 0.062081 0.141151 0.017654 -0.082476 -0.211499 -0.069237 -0.058172 0.285967 -0.144954 0.040751 0.046232 -0.262971 0.214573 0.058852 0.041835 -0.045854 -0.164111 0.075327 -0.009714 0.044582 0.120871 -0.056189
运至 -0.152972 0.091585 -0.242018 0.129473 -0.320344 0.052333 0.027557 -0.060796 0.246317 -0.193195 0.124682 0.002241 -0.188108 -0.466861 -0.252043 0.188923 0.253200 0.022464 -0.290930 0.271269 0.257629 -0.033356 0.198583 0.150731 0.312699 -0.328870 0.518097 0.206622 0.072455 0.312677 0.050178 0.146891 -0.274725 0.366728 0.066643 -0.314616 0.283924 0.168944 -0.100101 0.312271 0.490030 -0.080383 0.110370 -0.342776 0.075900 -0.083264 0.371701 -0.072954 0.393981 -0.387749 -0.159203 0.058078 -0.094270 -0.322576 0.366094 -0.012636 0.094133 -0.083449 0.002633 0.287354 0.017871 -0.027035 -0.033757 -0.000810 -0.050265 -0.027501 -0.041454 -0.057575 0.146340 -0.162111 -0.319403 0.286045 0.158474 -0.120683 -0.143319 -0.024088 -0.116404 -0.055519 -0.071101 -0.022357 -0.151893 -0.174796 -0.329694 -0.086594 0.158254 0.056713 -0.134843 -0.116437 0.062666 -0.209355 -0.370170 -0.508463 -0.127978 0.187144 0.080548 0.205648 -0.322580 0.235515 0.260680 -0.006278 -0.070292 0.366645 0.338202 -0.133791 0.187264 0.138421 0.081029 0.195780 0.021057 -0.109839 -0.289359 -0.090280 -0.086593 0.394007 -0.200493 0.051588 0.061492 -0.359119 0.292362 0.082486 0.055787 -0.059503 -0.229915 0.105275 -0.009131 0.062935 0.164362 -0.084138
在 -0.137159 0.085036 -0.211571 0.117598 -0.287709 0.049986 0.022601 -0.058050 0.220988 -0.167406 0.107716 0.001758 -0.170761 -0.412609 -0.223067 0.170228 0.228165 0.022093 -0.250239 0.235124 0.224708 -0.029919 0.176201 0.138554 0.276595 -0.286738 0.461989 0.186530 0.068641 0.281381 0.048279 0.130263 -0.246650 0.322322 0.053166 -0.278053 0.253250 0.151429 -0.088368 0.274651 0.437026 -0.070841 0.098302 -0.306976 0.074097 -0.074803 0.324518 -0.064537 0.352400 -0.342991 -0.144877 0.057522 -0.084596 -0.287986 0.321260 -0.011020 0.076176 -0.071114 0.003279 0.254107 0.015466 -0.021685 -0.032280 -0.002660 -0.042040 -0.023184 -0.039661 -0.054388 0.124532 -0.141332 -0.285410 0.250961 0.140484 -0.102762 -0.123202 -0.019853 -0.103846 -0.053398 -0.062745 -0.019986 -0.133163 -0.152589 -0.295113 -0.081902 0.147181 0.050221 -0.116689 -0.104934 0.054182 -0.181554 -0.326484 -0.451206 -0.114111 0.162493 0.068458 0.183989 -0.292557 0.207857 0.231400 -0.009915 -0.060735 0.326445 0.305660 -0.122935 0.160975 0.123246 0.074765 0.170331 0.020151 -0.099561 -0.254106 -0.075108 -0.070538 0.344994 -0.177131 0.047192 0.055159 -0.319773 0.263739 0.072755 0.054050 -0.052066 -0.197995 0.092388 -0.008123 0.051579 0.147690 -0.071369
为 -0.094981 0.063049 -0.152636 0.084579 -0.213439 0.036942 0.016975 -0.044718 0.165452 -0.129452 0.082429 0.001289 -0.129414 -0.304329 -0.167536 0.127310 0.164999 0.012677 -0.191431 0.173053 0.163544 -0.023434 0.132910 0.097661 0.205879 -0.212042 0.339258 0.137284 0.049192 0.207631 0.034813 0.092810 -0.182956 0.235653 0.042106 -0.207387 0.187907 0.108105 -0.066465 0.204526 0.316819 -0.046326 0.068310 -0.226653 0.047687 -0.050908 0.245969 -0.047716 0.259962 -0.251412 -0.105593 0.040901 -0.058468 -0.209716 0.240033 -0.011287 0.058582 -0.051879 0.001283 0.183768 0.008671 -0.016845 -0.019398 0.001591 -0.035887 -0.014162 -0.023036 -0.037398 0.096917 -0.107419 -0.208884 0.182701 0.100288 -0.075916 -0.092669 -0.015676 -0.074640 -0.033825 -0.046388 -0.021544 -0.096086 -0.110405 -0.217306 -0.058754 0.107366 0.038719 -0.083399 -0.072041 0.036561 -0.135457 -0.240704 -0.326678 -0.082541 0.118359 0.048498 0.135601 -0.215379 0.155216 0.164236 -0.007490 -0.044226 0.238488 0.227658 -0.083972 0.125739 0.093679 0.051655 0.127720 0.017748 -0.072281 -0.192854 -0.061614 -0.056846 0.253580 -0.133183 0.031099 0.038917 -0.238271 0.194085 0.057398 0.035909 -0.042978 -0.150905 0.064640 -0.005277 0.038881 0.104032 -0.057937
从 -0.163910 0.100738 -0.265890 0.149189 -0.355951 0.053487 0.031145 -0.067141 0.275225 -0.215678 0.137539 0.003597 -0.207689 -0.513082 -0.277359 0.206817 0.278848 0.020773 -0.314965 0.298904 0.278010 -0.038511 0.215081 0.169994 0.349371 -0.355614 0.572657 0.228736 0.079665 0.347940 0.053864 0.158112 -0.298496 0.396909 0.065815 -0.345221 0.308847 0.184389 -0.108627 0.344607 0.537951 -0.087205 0.118617 -0.374618 0.083141 -0.092626 0.409884 -0.078742 0.434301 -0.426205 -0.177856 0.066331 -0.107688 -0.350814 0.398534 -0.016367 0.102176 -0.086902 0.005015 0.316033 0.016992 -0.033397 -0.038255 0.000401 -0.057416 -0.030013 -0.043035 -0.066215 0.153341 -0.182242 -0.353348 0.308161 0.168943 -0.131774 -0.156968 -0.022569 -0.127295 -0.057642 -0.077198 -0.026019 -0.161376 -0.186787 -0.361805 -0.095485 0.175258 0.065015 -0.145740 -0.126841 0.060789 -0.226660 -0.403798 -0.552952 -0.143066 0.201172 0.090281 0.228757 -0.360265 0.254188 0.284817 -0.007937 -0.072980 0.403155 0.376920 -0.149480 0.205099 0.147338 0.091266 0.215892 0.024003 -0.124367 -0.318137 -0.097755 -0.093097 0.431557 -0.220404 0.057084 0.068909 -0.398828 0.328140 0.094495 0.065369 -0.069854 -0.248888 0.113846 -0.008438 0.065219 0.176272 -0.089360
元 -0.103435 0.066844 -0.167540 0.089901 -0.227478 0.036861 0.017030 -0.044263 0.169412 -0.133681 0.085091 0.001073 -0.135413 -0.320594 -0.177435 0.129672 0.176184 0.012315 -0.204248 0.191819 0.176166 -0.017341 0.139989 0.108499 0.222821 -0.224621 0.364973 0.141099 0.053648 0.225397 0.033494 0.098501 -0.186225 0.259586 0.046856 -0.218964 0.200714 0.116727 -0.064567 0.215889 0.344060 -0.052283 0.072666 -0.240427 0.051990 -0.055860 0.259813 -0.050709 0.272163 -0.269221 -0.117482 0.042155 -0.066947 -0.221720 0.252467 -0.006146 0.065983 -0.057759 0.001888 0.201066 0.009486 -0.015555 -0.019491 -0.003373 -0.036149 -0.023968 -0.030027 -0.040108 0.104875 -0.114366 -0.216270 0.193688 0.106126 -0.085811 -0.092960 -0.017509 -0.071655 -0.035233 -0.045992 -0.019710 -0.102368 -0.118335 -0.229086 -0.058630 0.109823 0.038205 -0.096503 -0.075929 0.046050 -0.145404 -0.257395 -0.359341 -0.097350 0.133213 0.052357 0.137984 -0.229783 0.167155 0.173421 -0.006411 -0.051779 0.261061 0.236114 -0.097610 0.126926 0.091844 0.058687 0.140854 0.021893 -0.076638 -0.197873 -0.057789 -0.054877 0.275834 -0.139851 0.032809 0.039797 -0.253745 0.208806 0.058046 0.041229 -0.039243 -0.161455 0.076113 -0.008760 0.048066 0.114508 -0.061758
净重 -0.122691 0.072037 -0.192922 0.103342 -0.259128 0.039696 0.024521 -0.051317 0.198081 -0.150743 0.098623 0.001720 -0.156628 -0.369435 -0.204958 0.156453 0.207794 0.019038 -0.233193 0.217939 0.204343 -0.022647 0.161842 0.121399 0.251774 -0.259646 0.412687 0.166170 0.056139 0.254330 0.039297 0.115900 -0.223707 0.289602 0.049159 -0.253673 0.225433 0.137425 -0.082834 0.244800 0.389222 -0.058767 0.091056 -0.272532 0.059976 -0.069056 0.301679 -0.059348 0.318751 -0.309409 -0.127248 0.049755 -0.075467 -0.260728 0.289320 -0.010848 0.073936 -0.064045 0.004878 0.227129 0.009681 -0.023533 -0.028935 -0.004234 -0.038269 -0.019941 -0.032441 -0.045867 0.114497 -0.130278 -0.256564 0.224133 0.124274 -0.096832 -0.115372 -0.018042 -0.087270 -0.048028 -0.055047 -0.019508 -0.119237 -0.135412 -0.262623 -0.068756 0.134175 0.048494 -0.103116 -0.091220 0.045331 -0.168249 -0.297577 -0.406738 -0.105328 0.145962 0.059859 0.169019 -0.258555 0.188489 0.209102 -0.005022 -0.051756 0.296022 0.277751 -0.106330 0.149493 0.112923 0.060673 0.155930 0.020220 -0.089597 -0.227463 -0.074147 -0.070070 0.314624 -0.163843 0.045337 0.046622 -0.289019 0.239101 0.069627 0.041543 -0.054226 -0.180229 0.080871 -0.007868 0.051810 0.134938 -0.070170
赃款 -0.110230 0.071474 -0.182183 0.102957 -0.239960 0.040708 0.018463 -0.050968 0.191442 -0.147552 0.093518 0.002891 -0.142576 -0.354134 -0.191973 0.146060 0.192565 0.016986 -0.213925 0.199907 0.194710 -0.022259 0.148099 0.117279 0.241128 -0.248213 0.392665 0.154760 0.059996 0.241895 0.038130 0.110972 -0.205053 0.274538 0.045815 -0.232905 0.217137 0.130008 -0.073741 0.235883 0.367312 -0.058159 0.080166 -0.254535 0.063915 -0.061436 0.274681 -0.053032 0.294439 -0.285114 -0.121273 0.046592 -0.072883 -0.238614 0.274315 -0.007865 0.066913 -0.062212 0.004413 0.215042 0.011714 -0.022796 -0.028004 -0.000572 -0.040433 -0.016571 -0.030575 -0.042877 0.108292 -0.119979 -0.238404 0.212822 0.120621 -0.091450 -0.100110 -0.016428 -0.082359 -0.039905 -0.053270 -0.016701 -0.115061 -0.130760 -0.252653 -0.065736 0.125007 0.043649 -0.101888 -0.082922 0.047233 -0.155357 -0.280548 -0.382756 -0.097170 0.139897 0.062440 0.158727 -0.242476 0.173460 0.193214 -0.006377 -0.052306 0.280957 0.254925 -0.100159 0.135737 0.100001 0.060797 0.145737 0.021807 -0.085040 -0.218456 -0.068699 -0.066293 0.298191 -0.151435 0.040186 0.046220 -0.273787 0.223532 0.068102 0.042407 -0.046718 -0.172832 0.072662 -0.012996 0.050368 0.124559 -0.059144
运煤 -0.117420 0.076420 -0.194588 0.108478 -0.259098 0.039098 0.024554 -0.046188 0.199092 -0.150589 0.100823 0.000967 -0.153467 -0.371012 -0.203083 0.151879 0.210218 0.015560 -0.226264 0.214605 0.206065 -0.026268 0.158617 0.127433 0.255465 -0.261697 0.417894 0.168307 0.058614 0.256494 0.040443 0.116813 -0.221418 0.292165 0.051530 -0.249045 0.224591 0.134101 -0.077554 0.247030 0.389831 -0.060157 0.089537 -0.275996 0.065024 -0.064996 0.298757 -0.056883 0.318964 -0.309550 -0.132916 0.050333 -0.074429 -0.261288 0.294036 -0.012735 0.076106 -0.063025 0.007768 0.228477 0.016820 -0.017653 -0.024538 -0.003370 -0.036534 -0.021870 -0.034196 -0.048889 0.116776 -0.127933 -0.258498 0.228790 0.126943 -0.092140 -0.108546 -0.016971 -0.094187 -0.042080 -0.059989 -0.016013 -0.117103 -0.140057 -0.269689 -0.069202 0.130732 0.045454 -0.107372 -0.096821 0.049098 -0.163712 -0.299623 -0.405142 -0.102457 0.151610 0.065381 0.169550 -0.260824 0.188212 0.210058 -0.008730 -0.052662 0.299139 0.270558 -0.105192 0.150841 0.112769 0.068161 0.155168 0.018988 -0.091605 -0.231974 -0.069830 -0.069651 0.318804 -0.165878 0.043469 0.049734 -0.293898 0.236427 0.071820 0.045443 -0.053686 -0.181432 0.081513 -0.012477 0.047584 0.132604 -0.064633
由 -0.119743 0.069990 -0.182398 0.101876 -0.248374 0.038772 0.023902 -0.049054 0.195854 -0.151931 0.094372 -0.002843 -0.149805 -0.362387 -0.192995 0.151139 0.202960 0.017159 -0.220077 0.206459 0.198664 -0.021280 0.152156 0.116470 0.241911 -0.253214 0.401415 0.165891 0.060358 0.243477 0.040583 0.112434 -0.217888 0.281667 0.052944 -0.243723 0.219367 0.134642 -0.078548 0.245828 0.381270 -0.064187 0.084983 -0.266281 0.058337 -0.061109 0.289152 -0.059368 0.303222 -0.297592 -0.127714 0.046659 -0.072568 -0.250501 0.281245 -0.010070 0.067112 -0.066485 0.007276 0.222015 0.016780 -0.021968 -0.028131 -0.000996 -0.041800 -0.024505 -0.032678 -0.048486 0.108148 -0.126498 -0.250768 0.220805 0.120151 -0.090925 -0.110555 -0.014285 -0.088393 -0.043277 -0.059893 -0.022352 -0.114987 -0.136039 -0.256137 -0.070824 0.125809 0.041091 -0.102127 -0.094155 0.045318 -0.162371 -0.289149 -0.397013 -0.099103 0.147574 0.058315 0.160440 -0.251946 0.182602 0.202884 -0.006477 -0.048833 0.284262 0.269039 -0.105376 0.140957 0.105067 0.062403 0.147693 0.019878 -0.092378 -0.227835 -0.065755 -0.066304 0.307978 -0.159270 0.042411 0.049221 -0.278979 0.227900 0.069173 0.048043 -0.048579 -0.173672 0.080348 -0.006679 0.048700 0.127960 -0.068042
中 -0.102332 0.062868 -0.158998 0.089419 -0.209764 0.035567 0.017873 -0.037833 0.165577 -0.129121 0.085144 -0.001628 -0.125211 -0.310848 -0.171154 0.127998 0.174332 0.015243 -0.188465 0.179644 0.168498 -0.017742 0.129071 0.103700 0.211127 -0.218605 0.341560 0.139905 0.052964 0.210340 0.036640 0.096007 -0.183025 0.239706 0.044180 -0.211335 0.191400 0.110208 -0.068815 0.205769 0.326259 -0.055013 0.072093 -0.226552 0.053895 -0.055372 0.243465 -0.051882 0.265903 -0.258040 -0.104186 0.044387 -0.064090 -0.211233 0.245141 -0.009172 0.062713 -0.052099 0.003664 0.189510 0.015952 -0.014049 -0.020859 -0.003217 -0.035111 -0.014155 -0.027553 -0.038964 0.091629 -0.109108 -0.213057 0.185782 0.101292 -0.080555 -0.092544 -0.014279 -0.078178 -0.034864 -0.049677 -0.019504 -0.099996 -0.114651 -0.222320 -0.060613 0.109721 0.033797 -0.091566 -0.076201 0.039604 -0.140878 -0.245238 -0.336983 -0.090749 0.124510 0.052488 0.140520 -0.219816 0.157023 0.172685 -0.008959 -0.044647 0.246078 0.228881 -0.091482 0.120947 0.094712 0.053933 0.125662 0.019958 -0.077075 -0.195997 -0.058108 -0.053779 0.261042 -0.132920 0.032515 0.041801 -0.237583 0.196911 0.054105 0.041813 -0.037326 -0.154649 0.064673 -0.011085 0.042116 0.108256 -0.057443
销售 -0.087720 0.056790 -0.149026 0.082184 -0.193032 0.031559 0.017699 -0.036015 0.150982 -0.116712 0.074904 -0.000449 -0.114637 -0.289455 -0.151869 0.119650 0.158086 0.015677 -0.176775 0.165732 0.160660 -0.021116 0.118631 0.097089 0.195337 -0.197052 0.316322 0.124309 0.050529 0.192438 0.035924 0.089729 -0.170015 0.224681 0.037621 -0.189571 0.176442 0.099573 -0.061287 0.193357 0.303463 -0.045075 0.070231 -0.208585 0.052699 -0.050194 0.223093 -0.047491 0.241775 -0.237749 -0.093910 0.041734 -0.059438 -0.198851 0.218925 -0.010101 0.054753 -0.052274 0.005867 0.177332 0.008472 -0.019670 -0.017263 0.000862 -0.034427 -0.016439 -0.021251 -0.037996 0.087778 -0.100343 -0.194092 0.169824 0.097511 -0.072584 -0.083915 -0.010089 -0.070432 -0.036042 -0.047403 -0.011638 -0.091541 -0.104150 -0.206765 -0.056457 0.099362 0.033233 -0.080232 -0.069865 0.035816 -0.125634 -0.229537 -0.314656 -0.079646 0.112559 0.052579 0.129449 -0.202183 0.141275 0.160361 -0.004559 -0.037062 0.227615 0.205122 -0.084363 0.115239 0.084323 0.053439 0.115874 0.011449 -0.070708 -0.180134 -0.051753 -0.055040 0.242024 -0.126729 0.030037 0.037394 -0.219279 0.183795 0.053284 0.035515 -0.034392 -0.137943 0.060727 -0.008922 0.036037 0.100666 -0.047001
过程 -0.093966 0.058355 -0.143679 0.076498 -0.190750 0.032635 0.015079 -0.035730 0.153272 -0.118917 0.072325 -0.002632 -0.114483 -0.283629 -0.154734 0.118379 0.158295 0.012312 -0.175813 0.161802 0.156574 -0.019735 0.118407 0.092757 0.191510 -0.194569 0.314558 0.124399 0.045835 0.190958 0.034163 0.089339 -0.165186 0.217556 0.036350 -0.188443 0.171529 0.102397 -0.057882 0.186656 0.295860 -0.044006 0.063573 -0.208670 0.048142 -0.045645 0.225559 -0.046750 0.232883 -0.233699 -0.096621 0.033843 -0.056319 -0.197790 0.215264 -0.006674 0.053721 -0.046248 -0.000252 0.168661 0.008305 -0.016700 -0.024146 -0.000462 -0.029101 -0.012936 -0.027381 -0.032711 0.083912 -0.102025 -0.192938 0.170571 0.089934 -0.071541 -0.080054 -0.009701 -0.068870 -0.031689 -0.039700 -0.017641 -0.087821 -0.106193 -0.201949 -0.050420 0.098309 0.033607 -0.079489 -0.066806 0.039274 -0.125361 -0.220083 -0.307849 -0.078662 0.113598 0.045400 0.125225 -0.193937 0.140580 0.157914 -0.003841 -0.042628 0.219788 0.204557 -0.081526 0.109072 0.081218 0.047348 0.117330 0.017565 -0.064755 -0.177465 -0.055029 -0.049704 0.235916 -0.122301 0.033601 0.033425 -0.220421 0.178486 0.049235 0.038224 -0.039585 -0.137896 0.061556 -0.008046 0.039746 0.101794 -0.046031
煤场 -0.134381 0.085820 -0.216509 0.115244 -0.290042 0.043626 0.027634 -0.057722 0.219849 -0.168472 0.113745 0.000960 -0.171595 -0.415298 -0.221674 0.170970 0.232135 0.021204 -0.256645 0.237154 0.225535 -0.030585 0.177116 0.134301 0.285674 -0.288072 0.463282 0.188214 0.068525 0.285176 0.047317 0.131297 -0.244457 0.328133 0.057494 -0.277263 0.251870 0.148800 -0.088013 0.278316 0.441050 -0.065636 0.101970 -0.306426 0.071189 -0.075714 0.325846 -0.064758 0.348579 -0.343330 -0.144574 0.055296 -0.083573 -0.284712 0.328080 -0.016789 0.084707 -0.074463 0.003030 0.255370 0.018301 -0.024850 -0.033672 0.000560 -0.044433 -0.020953 -0.037076 -0.055909 0.132278 -0.150127 -0.284476 0.252037 0.141389 -0.106414 -0.120008 -0.021284 -0.097671 -0.053665 -0.067407 -0.026375 -0.134741 -0.152771 -0.293566 -0.076972 0.142103 0.048201 -0.122045 -0.102155 0.049237 -0.186954 -0.326388 -0.454600 -0.119234 0.167771 0.073769 0.181622 -0.287882 0.205020 0.229731 -0.004885 -0.063498 0.331155 0.301807 -0.123560 0.168496 0.125094 0.076722 0.172937 0.025427 -0.102641 -0.260966 -0.078504 -0.076455 0.346980 -0.180850 0.049799 0.050958 -0.323955 0.266687 0.079301 0.051732 -0.051216 -0.199451 0.087945 -0.010953 0.055037 0.146050 -0.072181
李 -0.130919 0.085600 -0.209279 0.119640 -0.282456 0.042300 0.026336 -0.055760 0.218282 -0.167761 0.109182 0.001147 -0.172748 -0.410756 -0.225217 0.171990 0.222375 0.015850 -0.254371 0.236272 0.222959 -0.030844 0.173787 0.134887 0.282862 -0.290240 0.454668 0.180209 0.067469 0.276939 0.050410 0.122918 -0.237861 0.317642 0.058585 -0.273587 0.253041 0.144996 -0.090817 0.277191 0.434462 -0.066338 0.097904 -0.300276 0.073685 -0.074293 0.327598 -0.060373 0.346177 -0.338284 -0.143595 0.058869 -0.085618 -0.286957 0.317710 -0.014990 0.076489 -0.071817 0.002464 0.252641 0.019114 -0.026589 -0.028807 -0.001668 -0.042078 -0.024761 -0.034919 -0.053306 0.127789 -0.146029 -0.279881 0.251246 0.137612 -0.101587 -0.123517 -0.021748 -0.097502 -0.052217 -0.064209 -0.020173 -0.131486 -0.149508 -0.289730 -0.078362 0.138890 0.045311 -0.116520 -0.104021 0.052770 -0.181005 -0.322022 -0.446898 -0.114376 0.161160 0.070800 0.180377 -0.285248 0.206193 0.228469 -0.010028 -0.057747 0.322847 0.304809 -0.115451 0.164768 0.118390 0.070739 0.168416 0.023840 -0.102962 -0.257268 -0.082805 -0.075632 0.348269 -0.174917 0.048107 0.056550 -0.323416 0.263405 0.072618 0.051155 -0.055201 -0.198578 0.092935 -0.008785 0.054701 0.144472 -0.071752
私自 -0.112249 0.072627 -0.184309 0.103514 -0.245573 0.042821 0.022493 -0.051630 0.193460 -0.150581 0.096328 0.004599 -0.149309 -0.360746 -0.192899 0.148109 0.196721 0.013224 -0.219280 0.209688 0.201549 -0.022784 0.151241 0.117297 0.241442 -0.253930 0.396421 0.163129 0.062717 0.245285 0.043731 0.110460 -0.209270 0.278546 0.050954 -0.238010 0.221090 0.126364 -0.071733 0.237010 0.373980 -0.063678 0.088648 -0.261455 0.059121 -0.062185 0.283233 -0.055254 0.301450 -0.299700 -0.121619 0.045815 -0.076523 -0.249619 0.281490 -0.015563 0.066838 -0.062907 0.001255 0.223587 0.010651 -0.024818 -0.023829 0.000770 -0.036302 -0.020482 -0.035589 -0.048045 0.113938 -0.126558 -0.245442 0.215634 0.117847 -0.092292 -0.107254 -0.013001 -0.085159 -0.040945 -0.057432 -0.022329 -0.117100 -0.131786 -0.255699 -0.066282 0.128061 0.046597 -0.099207 -0.087694 0.046056 -0.159374 -0.287550 -0.390895 -0.103534 0.143437 0.062565 0.160334 -0.252878 0.177140 0.198828 -0.008372 -0.053992 0.285586 0.260651 -0.102965 0.139921 0.102358 0.061906 0.150368 0.022571 -0.087486 -0.225493 -0.067913 -0.064823 0.300125 -0.157798 0.043174 0.048345 -0.280689 0.226508 0.068592 0.044167 -0.043229 -0.173621 0.077046 -0.008578 0.046009 0.130748 -0.064962
块煤 -0.121008 0.073343 -0.191238 0.103206 -0.253938 0.040420 0.022002 -0.053883 0.197265 -0.150920 0.096621 0.001151 -0.152342 -0.368791 -0.198914 0.148497 0.198954 0.014535 -0.228303 0.212344 0.203943 -0.022326 0.157446 0.121265 0.245394 -0.258995 0.407470 0.160312 0.061785 0.252821 0.044226 0.109724 -0.214992 0.288333 0.049112 -0.242241 0.219480 0.134339 -0.082764 0.240171 0.381335 -0.057385 0.087760 -0.272801 0.060785 -0.061781 0.294012 -0.058616 0.309471 -0.305300 -0.124625 0.050825 -0.075138 -0.252043 0.289422 -0.011208 0.073494 -0.065355 0.004191 0.227544 0.017743 -0.020379 -0.030039 -0.003692 -0.037881 -0.023046 -0.030170 -0.046614 0.108344 -0.128016 -0.253475 0.224222 0.120097 -0.097069 -0.113110 -0.017666 -0.091802 -0.047722 -0.058298 -0.019131 -0.120249 -0.139519 -0.261771 -0.072601 0.123264 0.043922 -0.105343 -0.094835 0.043794 -0.164974 -0.293309 -0.398108 -0.099240 0.145735 0.065877 0.165454 -0.257037 0.181853 0.200990 -0.007509 -0.051777 0.291498 0.266832 -0.103858 0.147932 0.106799 0.060480 0.150884 0.020154 -0.089600 -0.225339 -0.067607 -0.067816 0.312299 -0.163945 0.038875 0.052060 -0.288859 0.234946 0.063827 0.043057 -0.054222 -0.174826 0.083268 -0.012673 0.052389 0.125986 -0.066979
侯某 -0.106503 0.066840 -0.171209 0.101280 -0.235458 0.036148 0.020212 -0.045899 0.180111 -0.141471 0.088014 -0.002566 -0.140809 -0.339720 -0.185488 0.143018 0.186348 0.015933 -0.207488 0.196780 0.189687 -0.025096 0.144287 0.110166 0.233088 -0.243295 0.377718 0.156085 0.053918 0.234670 0.039747 0.104457 -0.196900 0.265040 0.042839 -0.226730 0.208506 0.119722 -0.075874 0.232496 0.361148 -0.056124 0.084448 -0.255376 0.059973 -0.062528 0.273879 -0.056456 0.291291 -0.281132 -0.117612 0.048624 -0.067886 -0.232833 0.263120 -0.008845 0.067634 -0.060489 0.002737 0.208018 0.016363 -0.017441 -0.020930 -0.002591 -0.033038 -0.019112 -0.029894 -0.044194 0.109174 -0.121376 -0.235998 0.209375 0.115261 -0.089668 -0.098692 -0.012726 -0.082775 -0.037373 -0.052410 -0.015109 -0.107015 -0.127391 -0.240297 -0.062930 0.119084 0.039785 -0.100359 -0.086974 0.042460 -0.147133 -0.273717 -0.371897 -0.095254 0.138241 0.055387 0.148270 -0.240075 0.167869 0.190771 -0.003976 -0.049784 0.267487 0.253976 -0.098784 0.137899 0.103764 0.057519 0.145769 0.015623 -0.081705 -0.210893 -0.062729 -0.059721 0.288900 -0.151919 0.040850 0.045021 -0.265202 0.216609 0.066178 0.039094 -0.042742 -0.170118 0.074630 -0.007352 0.046259 0.123340 -0.064611
煤矿 -0.131194 0.081270 -0.201208 0.113533 -0.271383 0.047125 0.024354 -0.054394 0.209163 -0.166506 0.105947 0.003160 -0.163959 -0.398529 -0.218267 0.164955 0.218745 0.016018 -0.246949 0.229787 0.222210 -0.027124 0.167067 0.129449 0.267224 -0.277892 0.443660 0.174642 0.068402 0.272139 0.044185 0.121069 -0.232894 0.312991 0.051699 -0.263640 0.238110 0.142421 -0.082650 0.262603 0.418784 -0.064972 0.093417 -0.289047 0.064047 -0.072391 0.313393 -0.061454 0.335642 -0.328541 -0.138155 0.054308 -0.079050 -0.275883 0.310156 -0.009127 0.073727 -0.069332 0.003939 0.240478 0.018548 -0.023424 -0.027111 -0.001868 -0.040895 -0.024373 -0.037196 -0.048344 0.122673 -0.139856 -0.269080 0.236988 0.135003 -0.099457 -0.120151 -0.021633 -0.096668 -0.050031 -0.057479 -0.017364 -0.122869 -0.147677 -0.280612 -0.079817 0.136496 0.051398 -0.111238 -0.100412 0.047656 -0.175646 -0.314796 -0.433860 -0.115489 0.158402 0.064590 0.176617 -0.279735 0.199439 0.219373 -0.010895 -0.053187 0.313606 0.287347 -0.115941 0.159447 0.115815 0.073750 0.168491 0.020957 -0.094623 -0.245167 -0.073905 -0.073509 0.336435 -0.174473 0.045884 0.055600 -0.308960 0.252587 0.075160 0.047049 -0.054851 -0.191208 0.084700 -0.010632 0.051202 0.138125 -0.070494
被告人 -0.161615 0.101676 -0.249993 0.140911 -0.339306 0.058945 0.033536 -0.066437 0.266588 -0.205126 0.133768 -0.001591 -0.205629 -0.494265 -0.265196 0.204644 0.273634 0.020837 -0.308294 0.279918 0.267234 -0.031500 0.208880 0.164872 0.331532 -0.346516 0.546199 0.221190 0.077076 0.337833 0.057309 0.148940 -0.286897 0.380490 0.067470 -0.327590 0.296823 0.178670 -0.106864 0.332147 0.520246 -0.085379 0.115830 -0.359351 0.085380 -0.084532 0.392399 -0.076090 0.417224 -0.402533 -0.165907 0.063946 -0.101614 -0.338123 0.382408 -0.013967 0.099767 -0.089093 0.008910 0.300621 0.019599 -0.027238 -0.034760 -0.000848 -0.056067 -0.025493 -0.043430 -0.062926 0.153169 -0.174682 -0.339258 0.294679 0.167295 -0.126206 -0.147393 -0.024397 -0.114295 -0.060440 -0.077944 -0.026940 -0.160764 -0.183545 -0.350556 -0.094670 0.167762 0.062162 -0.137031 -0.124645 0.059456 -0.215592 -0.386111 -0.538137 -0.137731 0.194968 0.082952 0.213942 -0.344752 0.246653 0.268330 -0.010812 -0.073195 0.387483 0.362308 -0.143798 0.195665 0.146306 0.086336 0.207464 0.024406 -0.120723 -0.302052 -0.094612 -0.092303 0.416480 -0.216889 0.052206 0.066116 -0.383798 0.313369 0.091433 0.064253 -0.064927 -0.239405 0.106026 -0.017069 0.062453 0.175862 -0.089357
康某 -0.140640 0.083861 -0.214646 0.123324 -0.295138 0.049291 0.029823 -0.057222 0.231139 -0.174103 0.117315 0.001877 -0.177817 -0.427305 -0.226570 0.178092 0.237808 0.022382 -0.260850 0.243486 0.237624 -0.027057 0.179510 0.140245 0.291608 -0.300780 0.473342 0.190587 0.073961 0.288420 0.048252 0.133437 -0.250751 0.329350 0.057766 -0.285302 0.259200 0.153338 -0.092346 0.287849 0.451570 -0.070799 0.103505 -0.315356 0.070372 -0.075971 0.340013 -0.068254 0.359598 -0.350007 -0.146502 0.057754 -0.089311 -0.293278 0.330976 -0.017067 0.080274 -0.077647 0.002656 0.264234 0.018507 -0.025703 -0.033669 0.002311 -0.049604 -0.024208 -0.034218 -0.054800 0.133626 -0.150315 -0.292259 0.254449 0.142601 -0.111336 -0.123843 -0.020125 -0.100784 -0.048293 -0.068495 -0.022969 -0.139675 -0.155422 -0.307437 -0.078502 0.145552 0.055118 -0.124982 -0.105695 0.054183 -0.187992 -0.335603 -0.461629 -0.121006 0.167522 0.076249 0.186388 -0.300700 0.212389 0.237306 -0.007362 -0.061652 0.339588 0.312659 -0.125640 0.167989 0.122739 0.072916 0.181362 0.024266 -0.100381 -0.263297 -0.080611 -0.075384 0.361343 -0.186301 0.047443 0.053159 -0.332369 0.267904 0.076606 0.055441 -0.054541 -0.208233 0.089766 -0.012637 0.056282 0.146631 -0.077534
联系 -0.105673 0.070048 -0.170440 0.097789 -0.232546 0.035745 0.021132 -0.048296 0.184653 -0.141919 0.086372 -0.002405 -0.140688 -0.338711 -0.185139 0.138090 0.186619 0.016024 -0.208545 0.195768 0.190617 -0.025594 0.142020 0.110441 0.233159 -0.241803 0.375615 0.150586 0.057776 0.232372 0.039242 0.101023 -0.195581 0.261887 0.047063 -0.229879 0.202559 0.125122 -0.073691 0.230143 0.357912 -0.055305 0.080879 -0.249802 0.055513 -0.059180 0.264589 -0.057132 0.284291 -0.281686 -0.117812 0.042458 -0.068362 -0.238166 0.262885 -0.008537 0.061783 -0.059279 0.000095 0.209201 0.015649 -0.022045 -0.021110 -0.004232 -0.037539 -0.019947 -0.033528 -0.046177 0.108167 -0.121891 -0.233940 0.204551 0.110531 -0.088293 -0.102334 -0.016992 -0.085550 -0.040344 -0.053277 -0.021320 -0.109671 -0.123664 -0.238936 -0.064052 0.116222 0.036794 -0.100646 -0.082360 0.040320 -0.149772 -0.271892 -0.371671 -0.093059 0.133623 0.060453 0.148247 -0.239796 0.167654 0.186017 -0.008152 -0.050926 0.266511 0.244470 -0.102055 0.132249 0.100208 0.055566 0.142722 0.021708 -0.082597 -0.207337 -0.064170 -0.058045 0.283255 -0.150764 0.041616 0.042516 -0.267237 0.216130 0.061753 0.045724 -0.046880 -0.165859 0.075893 -0.008468 0.041865 0.122895 -0.063241
了 -0.123734 0.072917 -0.192514 0.109910 -0.263207 0.043859 0.026372 -0.048151 0.201357 -0.155603 0.103297 0.000282 -0.156312 -0.376236 -0.201930 0.156478 0.207944 0.014104 -0.236714 0.221116 0.209234 -0.026068 0.159816 0.124143 0.255068 -0.260917 0.415983 0.170588 0.057946 0.257071 0.043107 0.113893 -0.220987 0.294035 0.049721 -0.249259 0.228048 0.136775 -0.082745 0.247830 0.398138 -0.065349 0.091920 -0.278025 0.063145 -0.065365 0.294617 -0.060104 0.320724 -0.310712 -0.126208 0.046902 -0.078140 -0.257147 0.294717 -0.014525 0.070195 -0.068432 0.002354 0.229434 0.015006 -0.019979 -0.031566 -0.001550 -0.040433 -0.024277 -0.033677 -0.047094 0.114597 -0.134229 -0.254178 0.230117 0.125582 -0.095950 -0.114478 -0.018788 -0.088111 -0.046629 -0.060614 -0.021753 -0.116782 -0.143188 -0.270464 -0.073213 0.128989 0.044923 -0.104228 -0.092784 0.050855 -0.168299 -0.299277 -0.410139 -0.102424 0.145526 0.061097 0.166033 -0.264616 0.184692 0.210301 -0.009591 -0.050770 0.299592 0.277190 -0.112230 0.148924 0.111362 0.062969 0.157519 0.024390 -0.095532 -0.235238 -0.068641 -0.069035 0.313826 -0.162318 0.041361 0.047546 -0.295174 0.239648 0.071122 0.050492 -0.050655 -0.184881 0.078559 -0.009185 0.047321 0.130474 -0.063848
三 -0.113112 0.065528 -0.171291 0.098284 -0.238462 0.038295 0.024626 -0.046118 0.179974 -0.140083 0.089652 -0.000191 -0.141536 -0.342204 -0.183658 0.137030 0.185576 0.018538 -0.208615 0.194185 0.188966 -0.020441 0.140020 0.116020 0.230746 -0.236869 0.376874 0.153572 0.055707 0.235434 0.041806 0.104889 -0.202916 0.263371 0.049681 -0.225966 0.203156 0.123190 -0.074397 0.227989 0.353544 -0.058913 0.083084 -0.249650 0.054696 -0.062311 0.267002 -0.050962 0.291188 -0.281571 -0.118984 0.042554 -0.066370 -0.231400 0.263452 -0.008218 0.065544 -0.058307 0.003591 0.204162 0.009108 -0.018780 -0.024483 0.001097 -0.039411 -0.018467 -0.026745 -0.039134 0.102142 -0.122326 -0.236288 0.204442 0.111955 -0.089118 -0.101332 -0.012154 -0.081772 -0.043593 -0.050898 -0.014710 -0.105263 -0.124672 -0.241015 -0.062213 0.114299 0.041928 -0.094838 -0.080622 0.043411 -0.150522 -0.271663 -0.370601 -0.095597 0.131840 0.056434 0.150291 -0.236289 0.172709 0.183419 -0.003499 -0.049981 0.270756 0.245663 -0.099394 0.132910 0.097412 0.062290 0.140852 0.017688 -0.079084 -0.212137 -0.062742 -0.064977 0.289341 -0.147181 0.036897 0.047365 -0.266319 0.215609 0.066292 0.043231 -0.046128 -0.167477 0.074557 -0.005823 0.041603 0.121294 -0.060754
二 -0.148986 0.093341 -0.230957 0.128040 -0.318626 0.050141 0.025785 -0.062030 0.248086 -0.193329 0.121564 0.000847 -0.188753 -0.458367 -0.247563 0.185451 0.252486 0.021024 -0.283007 0.264248 0.252818 -0.031794 0.195498 0.149932 0.310126 -0.324260 0.511417 0.206897 0.076390 0.315571 0.053886 0.139902 -0.271306 0.355839 0.060247 -0.302818 0.280529 0.169341 -0.100195 0.310356 0.485349 -0.077775 0.108740 -0.341119 0.079375 -0.082946 0.367414 -0.073955 0.387502 -0.375116 -0.161823 0.062741 -0.093388 -0.313914 0.361451 -0.013062 0.087774 -0.079071 0.002287 0.280295 0.018372 -0.027336 -0.035500 0.000633 -0.052966 -0.030046 -0.038161 -0.055994 0.141181 -0.161213 -0.313079 0.279991 0.150679 -0.114190 -0.136393 -0.017742 -0.110894 -0.056014 -0.073073 -0.028963 -0.149994 -0.167128 -0.329643 -0.084998 0.157748 0.058341 -0.133404 -0.114256 0.061857 -0.200346 -0.363709 -0.501298 -0.127838 0.183250 0.082026 0.201407 -0.318698 0.231545 0.255228 -0.007651 -0.069128 0.358943 0.336612 -0.136808 0.183926 0.131155 0.076826 0.191146 0.027941 -0.113831 -0.284790 -0.090579 -0.083513 0.386677 -0.200855 0.051884 0.058508 -0.358536 0.294091 0.081839 0.053400 -0.060547 -0.227290 0.097412 -0.013678 0.058139 0.160069 -0.085248
后 -0.136877 0.080428 -0.210404 0.117865 -0.286844 0.044155 0.023312 -0.053577 0.223752 -0.172078 0.108767 0.001099 -0.168466 -0.414303 -0.227875 0.166547 0.231084 0.019307 -0.256200 0.243260 0.230340 -0.026905 0.178748 0.139850 0.279179 -0.289245 0.460281 0.189235 0.066791 0.282947 0.045984 0.126232 -0.247198 0.329059 0.053692 -0.279706 0.255553 0.150278 -0.089224 0.278164 0.441195 -0.069596 0.097771 -0.308123 0.069041 -0.071153 0.330636 -0.061915 0.354097 -0.342761 -0.141435 0.055329 -0.087067 -0.286009 0.322695 -0.015667 0.077235 -0.070037 0.006465 0.257606 0.018734 -0.026231 -0.031501 -0.002034 -0.046716 -0.022514 -0.039821 -0.056636 0.129121 -0.145386 -0.284275 0.247781 0.142920 -0.105015 -0.126430 -0.022673 -0.103196 -0.048007 -0.063349 -0.022460 -0.132083 -0.152341 -0.300690 -0.080807 0.142619 0.053524 -0.122116 -0.100258 0.055639 -0.181696 -0.333696 -0.457090 -0.117739 0.162024 0.073320 0.183768 -0.291577 0.208437 0.226796 -0.011115 -0.060291 0.330080 0.306311 -0.117915 0.161315 0.120241 0.071810 0.172730 0.021177 -0.103183 -0.257976 -0.079539 -0.072781 0.352262 -0.185028 0.047435 0.055973 -0.326791 0.264083 0.074121 0.049021 -0.059127 -0.205419 0.095018 -0.013982 0.054919 0.146330 -0.072131
3月 -0.114663 0.069138 -0.187726 0.105438 -0.251139 0.036444 0.021632 -0.047113 0.195934 -0.147562 0.092563 0.002024 -0.150422 -0.362477 -0.196739 0.151958 0.196154 0.014313 -0.226911 0.213551 0.200370 -0.024163 0.149231 0.121404 0.244778 -0.253421 0.406986 0.161724 0.060232 0.248436 0.043913 0.114700 -0.211058 0.280486 0.050455 -0.238598 0.221233 0.127912 -0.076025 0.244363 0.376912 -0.061241 0.082417 -0.267281 0.063879 -0.063405 0.289538 -0.055095 0.306976 -0.302664 -0.124929 0.048651 -0.076013 -0.253807 0.280022 -0.016010 0.074555 -0.065927 0.005039 0.224540 0.013340 -0.019926 -0.023096 -0.004665 -0.036004 -0.018574 -0.031918 -0.049439 0.110823 -0.124523 -0.250676 0.220425 0.119698 -0.091238 -0.105341 -0.016262 -0.086730 -0.043459 -0.056873 -0.017910 -0.116635 -0.137765 -0.257163 -0.074532 0.127472 0.041334 -0.106389 -0.092168 0.042804 -0.159617 -0.285446 -0.399033 -0.102155 0.138850 0.059487 0.157815 -0.254983 0.179956 0.196499 -0.009239 -0.054072 0.283969 0.263909 -0.107517 0.139815 0.109252 0.062995 0.154560 0.023471 -0.090773 -0.224408 -0.068944 -0.065188 0.307332 -0.157976 0.038635 0.047990 -0.281209 0.226633 0.062659 0.041585 -0.047425 -0.173056 0.081882 -0.010000 0.047793 0.129993 -0.060949
指使 -0.096729 0.060551 -0.152854 0.088210 -0.201725 0.036934 0.020531 -0.041564 0.156533 -0.122197 0.078226 0.001072 -0.119051 -0.302422 -0.163959 0.119421 0.167189 0.012149 -0.181645 0.170556 0.161842 -0.021323 0.128834 0.102240 0.202304 -0.207596 0.330427 0.135659 0.049142 0.201980 0.036558 0.088005 -0.177160 0.234053 0.043317 -0.201732 0.181952 0.109522 -0.065408 0.196061 0.317259 -0.047669 0.071915 -0.222913 0.054693 -0.051492 0.240396 -0.044069 0.252482 -0.250223 -0.099153 0.036957 -0.061629 -0.207191 0.233691 -0.010370 0.056233 -0.053312 -0.000158 0.182351 0.009118 -0.013514 -0.022628 0.000949 -0.031624 -0.018226 -0.028080 -0.034125 0.094676 -0.104764 -0.206906 0.183337 0.101080 -0.074090 -0.086606 -0.014731 -0.071880 -0.037396 -0.046702 -0.017502 -0.099259 -0.113206 -0.212894 -0.057471 0.107294 0.034643 -0.086693 -0.074076 0.042257 -0.129613 -0.235912 -0.327590 -0.086298 0.116604 0.047311 0.128432 -0.208641 0.148003 0.168009 -0.001223 -0.039225 0.237206 0.222796 -0.082566 0.114687 0.089525 0.051249 0.128007 0.018267 -0.073177 -0.187018 -0.053487 -0.052003 0.254286 -0.129648 0.032406 0.040008 -0.232154 0.190305 0.051177 0.035128 -0.038205 -0.147942 0.066730 -0.010461 0.035596 0.102502 -0.050024
给 -0.132366 0.082292 -0.209365 0.119926 -0.285039 0.043521 0.022541 -0.052910 0.224926 -0.175984 0.114515 -0.003292 -0.174975 -0.415620 -0.228481 0.173921 0.225000 0.017171 -0.258734 0.239657 0.231241 -0.024895 0.172102 0.137492 0.282186 -0.291748 0.466710 0.187126 0.071884 0.284153 0.045100 0.129833 -0.243735 0.323967 0.058872 -0.277177 0.252046 0.153427 -0.093296 0.282750 0.434527 -0.065657 0.099515 -0.311107 0.074306 -0.074862 0.330251 -0.065873 0.356004 -0.344765 -0.146629 0.058237 -0.086575 -0.285274 0.328279 -0.010160 0.079028 -0.074194 0.003671 0.256828 0.017316 -0.024732 -0.033764 -0.004001 -0.040783 -0.025360 -0.036531 -0.050017 0.130480 -0.145684 -0.285637 0.253050 0.138600 -0.107519 -0.126809 -0.015069 -0.097480 -0.046928 -0.064126 -0.024536 -0.132825 -0.156243 -0.299008 -0.080002 0.145975 0.046553 -0.120460 -0.103294 0.051669 -0.181721 -0.331865 -0.457543 -0.119454 0.162713 0.072069 0.183833 -0.288425 0.212315 0.230635 -0.007243 -0.059056 0.330602 0.308084 -0.123838 0.165595 0.125897 0.074117 0.173581 0.022084 -0.098953 -0.262233 -0.080466 -0.074907 0.347283 -0.180607 0.050217 0.052285 -0.321919 0.262181 0.078986 0.053293 -0.058543 -0.206022 0.087664 -0.008348 0.054873 0.144064 -0.075154
张某 -0.111914 0.071043 -0.180657 0.104644 -0.244207 0.043311 0.023168 -0.045550 0.195663 -0.148448 0.098910 -0.001583 -0.150218 -0.360785 -0.192557 0.148003 0.201098 0.015670 -0.220353 0.207233 0.200245 -0.023119 0.154855 0.119892 0.246034 -0.249513 0.401996 0.158601 0.060714 0.243435 0.038978 0.111000 -0.207681 0.279057 0.048303 -0.237425 0.219043 0.127338 -0.077711 0.238623 0.379881 -0.060019 0.083838 -0.267961 0.064270 -0.063937 0.285304 -0.058727 0.300820 -0.298970 -0.122030 0.051780 -0.074168 -0.247599 0.276558 -0.009384 0.070113 -0.059733 0.004122 0.222574 0.013141 -0.024391 -0.029863 0.000934 -0.042048 -0.024025 -0.032809 -0.046890 0.111807 -0.123872 -0.243371 0.220626 0.120248 -0.088078 -0.107853 -0.015984 -0.087016 -0.044364 -0.057988 -0.015859 -0.117218 -0.131008 -0.256496 -0.068798 0.120702 0.042137 -0.105490 -0.092345 0.046974 -0.160830 -0.280785 -0.386948 -0.104466 0.138146 0.057812 0.157693 -0.247499 0.182813 0.196195 -0.002941 -0.047907 0.281373 0.264755 -0.101221 0.143645 0.102080 0.064666 0.149455 0.018817 -0.089719 -0.221533 -0.065455 -0.068785 0.301431 -0.159214 0.042870 0.044389 -0.276812 0.230857 0.068166 0.042430 -0.047518 -0.172696 0.075335 -0.009033 0.046979 0.126729 -0.067475
朱某 -0.093075 0.061369 -0.152136 0.084919 -0.208555 0.031741 0.022427 -0.038445 0.163028 -0.121257 0.076878 0.003834 -0.123477 -0.299714 -0.160820 0.118830 0.163206 0.011085 -0.179930 0.169727 0.163811 -0.023528 0.124288 0.094524 0.200303 -0.207061 0.332547 0.133267 0.047740 0.201565 0.031008 0.087812 -0.173802 0.229912 0.041808 -0.200812 0.181135 0.107538 -0.066443 0.199372 0.314240 -0.050922 0.070614 -0.219311 0.051848 -0.054016 0.233593 -0.047765 0.253621 -0.242977 -0.106261 0.035954 -0.062963 -0.202886 0.235112 -0.007212 0.060752 -0.053357 0.001793 0.182271 0.015756 -0.016390 -0.019500 0.000405 -0.029107 -0.020434 -0.028664 -0.039709 0.090391 -0.106254 -0.200416 0.178275 0.102523 -0.077674 -0.089987 -0.011743 -0.075629 -0.037649 -0.044373 -0.016628 -0.092599 -0.109757 -0.214792 -0.059044 0.105884 0.033081 -0.087740 -0.077974 0.035068 -0.132189 -0.236326 -0.320771 -0.085986 0.118149 0.050550 0.133498 -0.207078 0.151241 0.166394 -0.004244 -0.044528 0.232322 0.216725 -0.083354 0.120468 0.087307 0.050438 0.120191 0.015834 -0.073618 -0.181182 -0.054413 -0.053487 0.252976 -0.127594 0.031454 0.034505 -0.229106 0.191578 0.053061 0.036410 -0.036481 -0.142249 0.067051 -0.007623 0.038976 0.102931 -0.054585
4月 -0.138615 0.084948 -0.215887 0.122813 -0.293597 0.046704 0.028306 -0.062149 0.232894 -0.180014 0.116962 -0.004057 -0.178924 -0.428235 -0.228873 0.179582 0.232640 0.021550 -0.268009 0.248232 0.234663 -0.027852 0.179928 0.143908 0.288203 -0.299097 0.476948 0.187045 0.071656 0.290629 0.050058 0.132784 -0.251903 0.334164 0.062452 -0.285347 0.259446 0.159546 -0.091051 0.290482 0.454736 -0.075158 0.101454 -0.319708 0.073742 -0.072049 0.342951 -0.067044 0.361361 -0.353922 -0.145920 0.056946 -0.087603 -0.296554 0.332380 -0.018544 0.081703 -0.078636 0.006484 0.262181 0.015316 -0.023577 -0.027543 -0.005743 -0.046707 -0.028762 -0.038802 -0.058908 0.128240 -0.150761 -0.293635 0.263062 0.143200 -0.104796 -0.126178 -0.017912 -0.104257 -0.048973 -0.064680 -0.019652 -0.138299 -0.155769 -0.302502 -0.086801 0.150735 0.047238 -0.121282 -0.104116 0.053432 -0.186656 -0.338209 -0.468883 -0.123455 0.169392 0.074980 0.193191 -0.300844 0.211350 0.236884 -0.008517 -0.059112 0.339704 0.316968 -0.127312 0.168300 0.124295 0.077207 0.184010 0.026802 -0.104043 -0.270310 -0.079272 -0.081362 0.364307 -0.187378 0.047610 0.055122 -0.336560 0.275410 0.080218 0.054082 -0.055505 -0.210954 0.094885 -0.012020 0.054090 0.151995 -0.079382
2月 -0.119043 0.068406 -0.178700 0.105338 -0.249143 0.036533 0.023578 -0.049124 0.194770 -0.147384 0.098950 -0.001192 -0.149505 -0.361259 -0.193370 0.144230 0.198562 0.013826 -0.221151 0.207981 0.198240 -0.023275 0.154420 0.116417 0.245861 -0.249886 0.396998 0.156027 0.061933 0.247770 0.037873 0.112589 -0.207399 0.279713 0.047044 -0.238035 0.219231 0.133287 -0.079555 0.236627 0.378858 -0.061200 0.083692 -0.269270 0.064309 -0.062741 0.283082 -0.055623 0.301175 -0.294553 -0.127221 0.046493 -0.070803 -0.252589 0.276979 -0.012855 0.071209 -0.060551 0.000970 0.218404 0.017785 -0.021518 -0.027715 -0.004039 -0.040532 -0.019579 -0.034981 -0.048501 0.107342 -0.123995 -0.245416 0.213543 0.121131 -0.088444 -0.106811 -0.013803 -0.083077 -0.046051 -0.057822 -0.016494 -0.113155 -0.131309 -0.254442 -0.073438 0.124459 0.044161 -0.101603 -0.090219 0.042304 -0.160158 -0.281137 -0.394534 -0.101571 0.141529 0.062726 0.156752 -0.252527 0.179024 0.197294 -0.003069 -0.054064 0.283508 0.266607 -0.106657 0.140615 0.108146 0.064216 0.147461 0.016967 -0.085527 -0.220447 -0.066237 -0.063241 0.304269 -0.152297 0.041217 0.044653 -0.280483 0.230006 0.064693 0.042620 -0.050942 -0.173914 0.078252 -0.013553 0.051393 0.126488 -0.060750
并 -0.116391 0.074545 -0.188249 0.103452 -0.253810 0.039289 0.021578 -0.050903 0.202749 -0.154485 0.097742 0.002446 -0.150562 -0.369224 -0.200594 0.151466 0.207831 0.014032 -0.225576 0.211482 0.202488 -0.021804 0.160518 0.125877 0.250654 -0.260657 0.415022 0.169232 0.060903 0.252533 0.038057 0.111432 -0.219063 0.288083 0.048912 -0.248960 0.223646 0.130437 -0.080290 0.245142 0.393791 -0.064793 0.088085 -0.275757 0.061911 -0.062827 0.291106 -0.060427 0.313760 -0.307999 -0.129437 0.048472 -0.075979 -0.257422 0.290231 -0.010146 0.068967 -0.066499 0.001498 0.230915 0.017561 -0.020502 -0.023838 0.001234 -0.042214 -0.020203 -0.034909 -0.049497 0.115610 -0.130641 -0.251789 0.221585 0.126440 -0.092001 -0.109064 -0.015611 -0.090624 -0.044184 -0.053484 -0.019470 -0.118178 -0.135594 -0.262759 -0.072561 0.132216 0.047834 -0.105250 -0.088416 0.047070 -0.167850 -0.297509 -0.402925 -0.106391 0.148157 0.066355 0.166469 -0.260750 0.187103 0.203412 -0.003124 -0.052208 0.294996 0.272721 -0.106044 0.148363 0.109497 0.066352 0.152066 0.020909 -0.091940 -0.229208 -0.074356 -0.069688 0.309409 -0.162019 0.044338 0.052192 -0.286506 0.233979 0.067073 0.048325 -0.049936 -0.179065 0.083799 -0.007628 0.051217 0.133377 -0.063645
于 -0.076217 0.048535 -0.120421 0.063675 -0.159383 0.029023 0.017746 -0.033557 0.120611 -0.095634 0.062606 0.003369 -0.090923 -0.232024 -0.125295 0.097567 0.124180 0.011814 -0.139495 0.134671 0.124842 -0.012718 0.093096 0.076860 0.154937 -0.161329 0.253422 0.105985 0.039505 0.159509 0.025916 0.073457 -0.136544 0.176589 0.033325 -0.156684 0.142754 0.081204 -0.045918 0.153782 0.246089 -0.042078 0.058769 -0.172820 0.039222 -0.043136 0.184713 -0.040188 0.197995 -0.192334 -0.076796 0.027998 -0.044195 -0.158722 0.180500 -0.004558 0.045167 -0.039292 -0.001821 0.145074 0.011198 -0.009786 -0.017760 0.003489 -0.025546 -0.016749 -0.016784 -0.026390 0.069243 -0.077268 -0.156565 0.139680 0.074309 -0.059864 -0.069861 -0.011159 -0.052230 -0.029910 -0.039083 -0.013102 -0.071027 -0.085673 -0.164756 -0.040376 0.076504 0.025683 -0.067563 -0.055233 0.032700 -0.102481 -0.179809 -0.251658 -0.067184 0.090367 0.040905 0.102817 -0.159515 0.117516 0.126911 -0.005421 -0.034961 0.181419 0.164864 -0.069568 0.092558 0.070415 0.043782 0.097667 0.011985 -0.057436 -0.141612 -0.044452 -0.042048 0.195148 -0.097931 0.029335 0.033725 -0.183436 0.142251 0.043476 0.026225 -0.029252 -0.109803 0.049224 -0.006928 0.027120 0.078776 -0.041545
个 -0.087258 0.056796 -0.141622 0.082233 -0.189134 0.032500 0.015582 -0.037803 0.152121 -0.118783 0.075904 0.002758 -0.115833 -0.281362 -0.150930 0.116465 0.154909 0.011273 -0.171164 0.161845 0.152347 -0.017223 0.115636 0.094356 0.190852 -0.195753 0.311708 0.125558 0.043927 0.194907 0.029966 0.086060 -0.162549 0.221745 0.040861 -0.186207 0.170567 0.098506 -0.062307 0.184014 0.290893 -0.045939 0.064073 -0.209821 0.046726 -0.053444 0.219210 -0.047670 0.236473 -0.232562 -0.095758 0.036892 -0.055606 -0.191311 0.215455 -0.012336 0.052865 -0.046102 0.001564 0.167899 0.010096 -0.019755 -0.016505 -0.002655 -0.032135 -0.014205 -0.023288 -0.037082 0.085940 -0.095131 -0.189872 0.166025 0.090418 -0.071441 -0.082313 -0.011090 -0.063786 -0.029852 -0.039954 -0.016080 -0.085644 -0.106887 -0.196707 -0.055304 0.098295 0.032189 -0.080842 -0.071183 0.036947 -0.120450 -0.225135 -0.308599 -0.075818 0.113557 0.050348 0.127470 -0.195058 0.138175 0.150994 -0.008569 -0.039814 0.220236 0.207280 -0.083216 0.108986 0.082172 0.052201 0.115749 0.011759 -0.064688 -0.171466 -0.049696 -0.051571 0.237873 -0.122188 0.033009 0.032622 -0.213673 0.173287 0.048384 0.034872 -0.035015 -0.135893 0.058665 -0.010923 0.036776 0.096455 -0.047398
经 -0.129806 0.077469 -0.201023 0.111103 -0.278300 0.047572 0.027538 -0.055359 0.211576 -0.168864 0.105529 -0.001769 -0.160407 -0.401817 -0.216603 0.160513 0.219480 0.018731 -0.245049 0.225993 0.222418 -0.029403 0.170986 0.132154 0.268286 -0.280106 0.445842 0.177620 0.061623 0.271685 0.043287 0.123289 -0.233820 0.309634 0.052752 -0.267463 0.242177 0.143887 -0.082394 0.265518 0.420458 -0.069186 0.095878 -0.294376 0.068810 -0.070130 0.314579 -0.061469 0.335459 -0.329019 -0.139706 0.054896 -0.078739 -0.276188 0.310042 -0.016753 0.073754 -0.067240 0.006793 0.242699 0.019154 -0.023864 -0.028292 0.000607 -0.043067 -0.023682 -0.036893 -0.052899 0.120621 -0.141774 -0.275173 0.242578 0.134683 -0.097887 -0.118281 -0.019014 -0.099979 -0.046969 -0.057820 -0.024769 -0.126622 -0.146309 -0.283987 -0.078010 0.139708 0.051862 -0.112442 -0.099117 0.051195 -0.174874 -0.317243 -0.433900 -0.114645 0.155465 0.071790 0.174715 -0.275987 0.201620 0.220995 -0.007677 -0.060094 0.310395 0.287532 -0.111500 0.157851 0.120001 0.066770 0.165830 0.020710 -0.098817 -0.248634 -0.077890 -0.068857 0.332594 -0.176253 0.042728 0.055179 -0.305857 0.254933 0.070245 0.046475 -0.055943 -0.196107 0.089589 -0.012879 0.049026 0.141264 -0.068179
公司 -0.127576 0.081524 -0.204743 0.113442 -0.270436 0.042850 0.022019 -0.052891 0.212599 -0.165757 0.105539 -0.001766 -0.165980 -0.391025 -0.215655 0.161664 0.220227 0.013863 -0.245262 0.229746 0.219963 -0.026780 0.170626 0.132103 0.266251 -0.273382 0.436932 0.175850 0.063484 0.266550 0.043398 0.123267 -0.234235 0.306715 0.056337 -0.265388 0.237556 0.141220 -0.084361 0.264441 0.416022 -0.066967 0.093161 -0.294331 0.068849 -0.068608 0.315615 -0.062617 0.336015 -0.325093 -0.134894 0.051849 -0.083194 -0.274250 0.309731 -0.016735 0.080102 -0.067944 0.004252 0.238104 0.017835 -0.020243 -0.031229 -0.000647 -0.041986 -0.019681 -0.037749 -0.052205 0.121904 -0.138740 -0.268628 0.242546 0.135498 -0.103316 -0.121610 -0.013803 -0.098754 -0.045140 -0.062523 -0.021653 -0.122895 -0.148185 -0.278663 -0.076814 0.138424 0.045684 -0.113686 -0.096918 0.050604 -0.171825 -0.310986 -0.425964 -0.112435 0.159282 0.066885 0.172424 -0.276490 0.198197 0.213370 -0.009256 -0.060142 0.315729 0.287653 -0.116142 0.154442 0.116923 0.067796 0.161201 0.019171 -0.095083 -0.244976 -0.071976 -0.069280 0.331701 -0.174617 0.049011 0.054741 -0.305304 0.253342 0.075519 0.051843 -0.050790 -0.191940 0.085933 -0.013942 0.055630 0.138773 -0.073769
榆林市 -0.117670 0.070250 -0.180403 0.104791 -0.246001 0.042466 0.019021 -0.048603 0.193253 -0.148164 0.095621 0.002204 -0.143869 -0.355063 -0.190755 0.148707 0.197818 0.019556 -0.220316 0.201723 0.191097 -0.022200 0.150742 0.115672 0.241411 -0.248727 0.391357 0.155259 0.059343 0.242183 0.038374 0.112424 -0.210446 0.279599 0.047009 -0.238531 0.217700 0.130315 -0.074920 0.240118 0.375188 -0.059016 0.083337 -0.260820 0.062844 -0.064850 0.283879 -0.052632 0.297460 -0.292368 -0.118598 0.043701 -0.069231 -0.247118 0.280685 -0.011401 0.067465 -0.065515 0.005828 0.217504 0.013560 -0.018738 -0.025812 0.001568 -0.040291 -0.018970 -0.028839 -0.046475 0.107751 -0.127416 -0.238954 0.213560 0.121483 -0.089794 -0.108424 -0.017812 -0.085924 -0.039305 -0.056705 -0.018080 -0.113242 -0.133413 -0.253696 -0.066357 0.123231 0.042641 -0.098103 -0.086237 0.048577 -0.160229 -0.282521 -0.384215 -0.095383 0.143408 0.062776 0.160435 -0.249392 0.175290 0.192502 -0.004442 -0.050778 0.283489 0.262778 -0.104331 0.139191 0.103757 0.065936 0.151778 0.022619 -0.087205 -0.218196 -0.065089 -0.067184 0.295722 -0.159011 0.043130 0.046665 -0.277883 0.224106 0.067453 0.046331 -0.050486 -0.176337 0.078927 -0.006364 0.045800 0.128145 -0.063302
该 -0.102849 0.065898 -0.165059 0.091854 -0.222853 0.032208 0.015949 -0.042762 0.171610 -0.128086 0.085975 0.001532 -0.130644 -0.321320 -0.175682 0.130062 0.173323 0.011197 -0.200782 0.182048 0.173348 -0.021464 0.137663 0.107074 0.214758 -0.226641 0.356334 0.141963 0.050739 0.220611 0.035151 0.098280 -0.185322 0.252283 0.040109 -0.214631 0.195192 0.119349 -0.065569 0.211535 0.339845 -0.056841 0.077986 -0.237025 0.057032 -0.055050 0.248723 -0.051134 0.266368 -0.262550 -0.110357 0.039640 -0.062228 -0.220818 0.250965 -0.007440 0.058164 -0.060270 0.000182 0.193146 0.013690 -0.018494 -0.021612 -0.004368 -0.035244 -0.021873 -0.027648 -0.037572 0.098593 -0.113317 -0.218959 0.193391 0.108071 -0.084304 -0.091647 -0.010791 -0.080703 -0.036601 -0.049822 -0.020862 -0.097852 -0.115983 -0.223889 -0.062345 0.113249 0.042230 -0.093841 -0.082386 0.038180 -0.140274 -0.252401 -0.347530 -0.093663 0.122798 0.055576 0.140846 -0.221684 0.162332 0.174349 -0.004652 -0.044393 0.253117 0.232503 -0.096413 0.130696 0.096501 0.059253 0.131185 0.014251 -0.079548 -0.199926 -0.059963 -0.059870 0.270416 -0.140238 0.040473 0.039313 -0.247520 0.203203 0.057023 0.037770 -0.041499 -0.156397 0.074426 -0.004835 0.041557 0.109993 -0.060487
人民币 -0.114212 0.074959 -0.182425 0.105374 -0.255491 0.040781 0.020949 -0.048818 0.197878 -0.149986 0.095859 0.002608 -0.153534 -0.369039 -0.195852 0.149615 0.200497 0.012693 -0.229671 0.208152 0.200973 -0.022556 0.151916 0.123080 0.248275 -0.254532 0.407745 0.165239 0.060901 0.245666 0.036789 0.109910 -0.216210 0.285993 0.054123 -0.240577 0.224561 0.134646 -0.078708 0.243789 0.381207 -0.061800 0.089426 -0.271729 0.060640 -0.067372 0.288874 -0.055921 0.309613 -0.299406 -0.122874 0.049619 -0.075936 -0.247543 0.286343 -0.012440 0.073528 -0.064865 0.004152 0.221444 0.009737 -0.023040 -0.030086 -0.002057 -0.038499 -0.026241 -0.035607 -0.047313 0.115224 -0.128997 -0.246424 0.215777 0.121725 -0.092551 -0.109269 -0.014536 -0.083195 -0.043386 -0.053532 -0.021818 -0.117252 -0.136431 -0.256021 -0.067262 0.128303 0.045445 -0.104939 -0.091760 0.049699 -0.162268 -0.286261 -0.401666 -0.101498 0.145669 0.062196 0.161341 -0.258210 0.180884 0.198719 -0.004301 -0.056205 0.290791 0.269564 -0.109873 0.143491 0.102010 0.061535 0.156675 0.018706 -0.092633 -0.229632 -0.070224 -0.065765 0.304996 -0.160656 0.044450 0.046109 -0.281107 0.231781 0.069965 0.048633 -0.045750 -0.178006 0.076901 -0.011591 0.047379 0.125141 -0.066537
买主 -0.095918 0.062103 -0.154798 0.086014 -0.206844 0.034307 0.020928 -0.041263 0.160387 -0.122177 0.083290 -0.003469 -0.123916 -0.302232 -0.158564 0.118430 0.160158 0.012278 -0.182591 0.172238 0.163358 -0.018656 0.128357 0.101915 0.205074 -0.210974 0.330155 0.130925 0.046632 0.205741 0.033130 0.094317 -0.179098 0.235474 0.037810 -0.201280 0.180493 0.107436 -0.062292 0.195698 0.316299 -0.046246 0.068989 -0.215772 0.047874 -0.054702 0.235891 -0.044625 0.254849 -0.243638 -0.101420 0.039667 -0.060780 -0.206287 0.235277 -0.011851 0.055166 -0.050737 -0.000113 0.186523 0.012200 -0.013732 -0.025502 0.001394 -0.032935 -0.018208 -0.025201 -0.040644 0.092178 -0.104728 -0.203731 0.177952 0.101210 -0.079383 -0.091465 -0.010184 -0.071044 -0.037902 -0.047991 -0.019878 -0.093327 -0.109854 -0.212565 -0.056679 0.102350 0.034837 -0.084120 -0.070096 0.041004 -0.133013 -0.232012 -0.322868 -0.084732 0.115666 0.053994 0.134599 -0.212241 0.148038 0.164665 -0.003786 -0.041996 0.236547 0.218320 -0.089053 0.122330 0.085907 0.054933 0.121281 0.016812 -0.074760 -0.182500 -0.060372 -0.053415 0.253276 -0.126887 0.031850 0.035680 -0.235327 0.186854 0.056262 0.033121 -0.036602 -0.142238 0.066472 -0.005511 0.042375 0.105860 -0.051874
5月 -0.119455 0.076215 -0.182309 0.102419 -0.252251 0.041668 0.019696 -0.049079 0.192025 -0.153513 0.096333 0.002313 -0.149852 -0.362087 -0.196699 0.149967 0.198649 0.015021 -0.223330 0.206882 0.203380 -0.026329 0.149927 0.119372 0.248426 -0.254373 0.407768 0.162869 0.060699 0.248590 0.037234 0.111164 -0.215906 0.287253 0.048979 -0.244386 0.221924 0.133019 -0.075766 0.244201 0.382427 -0.063859 0.083477 -0.268706 0.060440 -0.065405 0.288239 -0.053806 0.308682 -0.302726 -0.122039 0.047117 -0.075245 -0.251477 0.282589 -0.010114 0.073142 -0.063824 0.006468 0.224760 0.010674 -0.024849 -0.023576 -0.004714 -0.041601 -0.022579 -0.028967 -0.044793 0.109653 -0.130583 -0.250701 0.220766 0.125452 -0.094055 -0.105349 -0.016110 -0.085253 -0.041890 -0.056421 -0.017638 -0.112092 -0.132022 -0.258371 -0.067824 0.124485 0.041508 -0.102336 -0.093423 0.045276 -0.157764 -0.285229 -0.393487 -0.106293 0.145192 0.060605 0.157268 -0.255339 0.180367 0.203980 -0.005506 -0.054024 0.290334 0.263118 -0.106309 0.145028 0.104475 0.060989 0.155964 0.023679 -0.085968 -0.226765 -0.072631 -0.063403 0.304115 -0.159166 0.038952 0.047641 -0.278948 0.234097 0.063164 0.044750 -0.050056 -0.181881 0.078513 -0.011687 0.050993 0.127094 -0.064802
横山 -0.119236 0.069564 -0.181418 0.105092 -0.250443 0.039074 0.018448 -0.052355 0.195485 -0.148494 0.094566 -0.000821 -0.150087 -0.359408 -0.198866 0.148414 0.199556 0.013136 -0.219395 0.205592 0.198235 -0.026609 0.152664 0.118710 0.245767 -0.254190 0.400046 0.157266 0.059543 0.240622 0.038234 0.106509 -0.211417 0.278339 0.049582 -0.243289 0.217603 0.132277 -0.078444 0.236277 0.380341 -0.062431 0.087287 -0.266435 0.058205 -0.063028 0.287131 -0.056678 0.304706 -0.299758 -0.120681 0.045470 -0.075213 -0.249132 0.282246 -0.012272 0.068791 -0.062903 0.004058 0.218118 0.011072 -0.021742 -0.029800 0.000225 -0.036659 -0.022872 -0.029666 -0.048152 0.112012 -0.126715 -0.244757 0.220347 0.118881 -0.087991 -0.110392 -0.014482 -0.090174 -0.039686 -0.056343 -0.016829 -0.116183 -0.130249 -0.256542 -0.067351 0.121038 0.040852 -0.103273 -0.089861 0.045861 -0.159829 -0.284180 -0.388768 -0.099803 0.140817 0.062907 0.157333 -0.248009 0.177414 0.196636 -0.006461 -0.054121 0.282590 0.260735 -0.104888 0.141822 0.101753 0.065279 0.151243 0.019449 -0.085277 -0.226378 -0.065793 -0.065574 0.304381 -0.155805 0.043097 0.046463 -0.280679 0.230115 0.063543 0.042748 -0.049185 -0.177574 0.082635 -0.009267 0.050353 0.123515 -0.063339
张一 -0.099183 0.063044 -0.154613 0.082933 -0.213698 0.034167 0.018194 -0.044179 0.158883 -0.127862 0.080385 0.003720 -0.127892 -0.306668 -0.162104 0.124151 0.168531 0.010589 -0.187117 0.172459 0.169812 -0.024215 0.126342 0.096082 0.202798 -0.213033 0.336284 0.133122 0.052500 0.204920 0.030436 0.093516 -0.178791 0.234476 0.041244 -0.204233 0.184138 0.107034 -0.065179 0.200557 0.316502 -0.053263 0.069520 -0.226115 0.052762 -0.053756 0.237572 -0.047786 0.259714 -0.248578 -0.101750 0.038590 -0.065141 -0.206722 0.234999 -0.007309 0.060362 -0.050727 0.001126 0.189454 0.011569 -0.019067 -0.024674 -0.003658 -0.036703 -0.021482 -0.023817 -0.040711 0.090959 -0.103252 -0.206716 0.186724 0.099457 -0.076553 -0.086450 -0.014022 -0.071884 -0.038692 -0.047719 -0.017049 -0.097985 -0.111458 -0.213899 -0.058850 0.102787 0.039072 -0.085619 -0.077826 0.041651 -0.137490 -0.237082 -0.328264 -0.084208 0.117479 0.050878 0.135545 -0.209732 0.152634 0.171214 -0.007546 -0.046397 0.242582 0.220765 -0.089399 0.119323 0.087287 0.054965 0.123509 0.012502 -0.071784 -0.191560 -0.062013 -0.051632 0.255755 -0.130055 0.038241 0.042082 -0.236148 0.191822 0.057729 0.038593 -0.041762 -0.148997 0.066303 -0.007104 0.038289 0.109353 -0.055895
约定 -0.097855 0.058202 -0.148163 0.083413 -0.201736 0.030841 0.018510 -0.036936 0.155629 -0.124338 0.079947 0.001132 -0.125296 -0.292041 -0.156935 0.122259 0.159327 0.014080 -0.183038 0.169324 0.158102 -0.021372 0.127658 0.097448 0.199616 -0.211429 0.324682 0.132343 0.048100 0.197205 0.032936 0.092145 -0.173788 0.232462 0.041071 -0.198671 0.183458 0.107990 -0.063031 0.197668 0.306089 -0.046044 0.071179 -0.219715 0.052020 -0.052915 0.234934 -0.046359 0.246309 -0.244949 -0.101045 0.040756 -0.061231 -0.206806 0.234184 -0.010612 0.058856 -0.055036 0.005787 0.181905 0.007235 -0.019186 -0.025742 0.002729 -0.034998 -0.017632 -0.026829 -0.039017 0.091392 -0.106020 -0.199524 0.176588 0.095263 -0.077942 -0.084572 -0.011105 -0.075249 -0.032605 -0.046178 -0.016293 -0.091603 -0.108355 -0.214634 -0.061354 0.100471 0.031886 -0.084972 -0.072895 0.038314 -0.129222 -0.234294 -0.318929 -0.085132 0.117182 0.047242 0.132347 -0.206478 0.149112 0.165366 -0.007008 -0.040061 0.233350 0.217267 -0.083424 0.114956 0.088510 0.053747 0.123478 0.012906 -0.075840 -0.185383 -0.058976 -0.056897 0.250079 -0.127516 0.031453 0.040101 -0.227371 0.183244 0.055353 0.034891 -0.040934 -0.147467 0.061174 -0.011078 0.041993 0.104649 -0.055732
煤炭 -0.112387 0.070286 -0.174762 0.094989 -0.235977 0.039647 0.019125 -0.047378 0.183524 -0.135770 0.092694 -0.000574 -0.135852 -0.338192 -0.179899 0.141138 0.182828 0.011104 -0.208517 0.193030 0.181113 -0.022016 0.144061 0.111347 0.231747 -0.238977 0.377072 0.147771 0.059112 0.227853 0.035482 0.101150 -0.201503 0.260080 0.048790 -0.223947 0.206618 0.124944 -0.072607 0.229061 0.355072 -0.055151 0.080819 -0.251663 0.055814 -0.058773 0.270992 -0.056046 0.287906 -0.277080 -0.119460 0.048220 -0.067483 -0.237325 0.266967 -0.013346 0.067463 -0.058141 0.003971 0.204316 0.010809 -0.021952 -0.029217 -0.000507 -0.038014 -0.023831 -0.030300 -0.040505 0.101053 -0.121667 -0.230377 0.206221 0.110480 -0.085916 -0.098767 -0.015546 -0.084925 -0.037673 -0.049473 -0.019851 -0.105414 -0.127009 -0.238027 -0.069923 0.121809 0.040247 -0.098593 -0.085780 0.042336 -0.151395 -0.269197 -0.370708 -0.091888 0.131486 0.056433 0.150120 -0.239150 0.169607 0.189598 -0.002179 -0.045280 0.270063 0.248125 -0.099245 0.136923 0.101497 0.061083 0.137571 0.014047 -0.081767 -0.206435 -0.068262 -0.058428 0.284649 -0.146539 0.042618 0.043120 -0.264901 0.210040 0.063294 0.045266 -0.047262 -0.162982 0.072477 -0.011556 0.043299 0.116373 -0.058613
3-8 -0.090620 0.058242 -0.149111 0.084267 -0.196504 0.033349 0.015722 -0.037051 0.153531 -0.118017 0.076532 0.003352 -0.121055 -0.283903 -0.154757 0.112651 0.159102 0.010919 -0.174732 0.165392 0.151685 -0.017701 0.121724 0.094410 0.196600 -0.200579 0.313728 0.126495 0.043165 0.190958 0.034171 0.089377 -0.165707 0.221182 0.035776 -0.188452 0.176710 0.106623 -0.058534 0.188162 0.300964 -0.051330 0.065047 -0.208437 0.050462 -0.050512 0.225451 -0.043171 0.240167 -0.233071 -0.094849 0.036002 -0.059125 -0.198419 0.224015 -0.012821 0.057901 -0.046805 0.001609 0.175140 0.012654 -0.018331 -0.018183 -0.001438 -0.032789 -0.015183 -0.025621 -0.031933 0.084219 -0.104257 -0.194157 0.168704 0.093178 -0.075470 -0.088453 -0.012847 -0.066372 -0.033294 -0.043451 -0.016707 -0.087535 -0.103960 -0.200813 -0.051558 0.101173 0.034940 -0.078313 -0.073495 0.037122 -0.129477 -0.221792 -0.310551 -0.079825 0.113402 0.045940 0.126476 -0.199352 0.142727 0.160038 -0.005536 -0.041694 0.223126 0.212335 -0.083035 0.117436 0.082318 0.046900 0.122420 0.013013 -0.072854 -0.176038 -0.057744 -0.051634 0.238960 -0.124935 0.033233 0.039146 -0.219451 0.177369 0.049563 0.034814 -0.039655 -0.141120 0.064550 -0.003069 0.037688 0.102943 -0.054547
据为 -0.073634 0.050965 -0.121649 0.064425 -0.163624 0.030714 0.015650 -0.030418 0.126934 -0.100145 0.065557 0.003291 -0.099895 -0.235349 -0.130751 0.097804 0.126413 0.009901 -0.149373 0.140158 0.133040 -0.017847 0.101044 0.077126 0.160314 -0.166525 0.260480 0.105036 0.039473 0.160140 0.027231 0.074362 -0.142266 0.184532 0.028531 -0.154572 0.147120 0.083608 -0.047245 0.161302 0.250485 -0.040036 0.056172 -0.176661 0.039026 -0.043697 0.189744 -0.039321 0.197880 -0.193483 -0.080697 0.033435 -0.048120 -0.162207 0.185792 -0.009010 0.047799 -0.041880 0.002951 0.142486 0.008905 -0.013723 -0.018748 0.000446 -0.024552 -0.012112 -0.023463 -0.031483 0.075504 -0.081481 -0.159718 0.144812 0.075765 -0.056643 -0.072409 -0.007521 -0.060498 -0.024253 -0.039651 -0.011954 -0.072581 -0.084173 -0.171702 -0.046209 0.079503 0.026394 -0.069690 -0.059410 0.029331 -0.108260 -0.186302 -0.254230 -0.067373 0.096839 0.038349 0.106177 -0.165709 0.116989 0.133306 -0.000948 -0.035382 0.189134 0.175245 -0.071410 0.095235 0.071076 0.042084 0.103474 0.011594 -0.057455 -0.145697 -0.048698 -0.041024 0.195948 -0.106979 0.030671 0.030310 -0.180480 0.153372 0.041147 0.028082 -0.028729 -0.117712 0.054011 -0.003244 0.032283 0.087400 -0.038224
己有 -0.097614 0.058977 -0.156588 0.088505 -0.208765 0.035534 0.017968 -0.045354 0.167014 -0.129629 0.077679 0.001508 -0.126340 -0.307501 -0.168522 0.124966 0.171095 0.017535 -0.186430 0.175505 0.171400 -0.020565 0.132055 0.103105 0.209626 -0.217268 0.343833 0.139051 0.051315 0.208991 0.037228 0.093011 -0.176136 0.237492 0.045706 -0.203204 0.187029 0.106735 -0.062800 0.209615 0.327246 -0.049751 0.071330 -0.221861 0.049275 -0.056983 0.243839 -0.052139 0.262985 -0.256444 -0.105387 0.037620 -0.062609 -0.216180 0.241486 -0.013796 0.057867 -0.051647 0.000157 0.192039 0.014344 -0.016144 -0.020908 -0.000764 -0.030649 -0.022173 -0.030600 -0.043003 0.091183 -0.104567 -0.213560 0.187723 0.102350 -0.077345 -0.091114 -0.013784 -0.077313 -0.034605 -0.045833 -0.012919 -0.101820 -0.110855 -0.221689 -0.059858 0.103679 0.034512 -0.083930 -0.077037 0.035399 -0.138003 -0.242804 -0.338383 -0.084963 0.119540 0.055826 0.134972 -0.212020 0.157794 0.170028 -0.005975 -0.047338 0.241461 0.221778 -0.091511 0.122489 0.091751 0.049741 0.131829 0.019618 -0.079268 -0.191964 -0.062106 -0.056606 0.254191 -0.135194 0.038763 0.041215 -0.239862 0.194791 0.054405 0.041800 -0.041237 -0.153755 0.069453 -0.005486 0.040272 0.103957 -0.052990
有限 -0.141490 0.086609 -0.213362 0.121288 -0.290672 0.046913 0.022212 -0.058055 0.228123 -0.175813 0.111671 -0.003829 -0.178444 -0.421282 -0.234735 0.170065 0.237874 0.021963 -0.261819 0.247800 0.231839 -0.025944 0.179992 0.138942 0.285381 -0.299817 0.476256 0.187641 0.072026 0.285690 0.050481 0.135206 -0.252357 0.333341 0.059090 -0.279834 0.256963 0.154186 -0.089619 0.282912 0.443297 -0.069523 0.104100 -0.317636 0.075891 -0.077250 0.337705 -0.063490 0.362183 -0.353626 -0.143634 0.052298 -0.083278 -0.297037 0.336259 -0.017418 0.082636 -0.071089 0.000924 0.255652 0.018862 -0.021536 -0.033916 -0.005172 -0.047485 -0.022410 -0.036395 -0.053045 0.128143 -0.150045 -0.289321 0.255542 0.138997 -0.107099 -0.131406 -0.019187 -0.103840 -0.053967 -0.062006 -0.019580 -0.132981 -0.155121 -0.299841 -0.084587 0.149613 0.054240 -0.122916 -0.105971 0.056831 -0.185133 -0.335843 -0.463435 -0.122554 0.169733 0.070213 0.184682 -0.299363 0.210879 0.230498 -0.003616 -0.057199 0.335812 0.310852 -0.126831 0.167419 0.127218 0.077066 0.175720 0.026596 -0.104415 -0.263034 -0.083381 -0.072796 0.354208 -0.180963 0.045879 0.055074 -0.329500 0.270609 0.079863 0.049688 -0.060841 -0.207430 0.093616 -0.008370 0.057043 0.149217 -0.076865
38.84 -0.091298 0.056236 -0.140517 0.075602 -0.192002 0.027446 0.015145 -0.041673 0.146116 -0.117862 0.070485 0.000950 -0.118151 -0.270786 -0.149795 0.110563 0.154148 0.011144 -0.169049 0.156416 0.146149 -0.019492 0.116338 0.091351 0.185140 -0.190977 0.304692 0.120845 0.041528 0.187209 0.032053 0.082459 -0.162306 0.211085 0.038912 -0.186926 0.169347 0.100297 -0.062604 0.179583 0.292076 -0.042672 0.061325 -0.199899 0.044517 -0.046482 0.221469 -0.040521 0.234259 -0.230590 -0.095586 0.033395 -0.056977 -0.193838 0.215617 -0.011087 0.056107 -0.051730 0.006486 0.164677 0.009829 -0.015615 -0.017280 -0.003767 -0.030654 -0.015324 -0.023063 -0.031592 0.082962 -0.096630 -0.186848 0.165361 0.094872 -0.073794 -0.082801 -0.011585 -0.065849 -0.037253 -0.042946 -0.019340 -0.091192 -0.104662 -0.194959 -0.049550 0.094181 0.033350 -0.078077 -0.065808 0.031408 -0.122025 -0.215944 -0.297443 -0.077401 0.111438 0.043574 0.122901 -0.191485 0.139550 0.147590 -0.002414 -0.042232 0.222074 0.198996 -0.077723 0.113462 0.077412 0.044401 0.117333 0.018100 -0.065667 -0.169579 -0.055548 -0.049547 0.231524 -0.124050 0.031032 0.037702 -0.210934 0.174856 0.050938 0.031141 -0.035706 -0.136624 0.064088 -0.009823 0.037573 0.095110 -0.051606
到 -0.118135 0.079253 -0.188413 0.110498 -0.259750 0.044862 0.020096 -0.053483 0.199728 -0.156494 0.101471 0.000784 -0.158285 -0.377217 -0.205881 0.157422 0.203934 0.015732 -0.233389 0.215893 0.204268 -0.022120 0.161739 0.128120 0.253092 -0.264572 0.413272 0.170608 0.065527 0.257545 0.042642 0.115590 -0.221892 0.296324 0.052908 -0.251839 0.227202 0.138969 -0.077906 0.250177 0.393000 -0.064574 0.086979 -0.277911 0.062269 -0.064578 0.300171 -0.059166 0.316623 -0.309298 -0.127514 0.051991 -0.074852 -0.256513 0.290112 -0.013122 0.074136 -0.067776 0.002714 0.228104 0.014279 -0.021583 -0.023557 0.001424 -0.043488 -0.018120 -0.035206 -0.048250 0.112161 -0.131037 -0.260320 0.227886 0.128764 -0.093783 -0.115163 -0.015416 -0.091238 -0.045351 -0.054961 -0.018938 -0.119789 -0.138869 -0.269599 -0.075779 0.132316 0.046436 -0.107523 -0.090504 0.048036 -0.169288 -0.296688 -0.410539 -0.107169 0.149816 0.066332 0.162091 -0.262829 0.190813 0.207412 -0.007817 -0.052914 0.293595 0.275486 -0.111574 0.149959 0.110717 0.068896 0.155819 0.020484 -0.089603 -0.233513 -0.070168 -0.064263 0.313600 -0.161607 0.041690 0.052072 -0.295148 0.240802 0.065722 0.047833 -0.053087 -0.179858 0.079489 -0.012082 0.049090 0.133339 -0.070080
马某 -0.079390 0.050329 -0.129770 0.069394 -0.177786 0.028306 0.014029 -0.034570 0.134808 -0.106509 0.067964 0.002348 -0.109197 -0.256377 -0.141168 0.104168 0.143577 0.011687 -0.154397 0.150625 0.142154 -0.018868 0.109274 0.082748 0.175391 -0.181038 0.283919 0.112700 0.045886 0.175516 0.031225 0.077023 -0.148127 0.200766 0.033842 -0.167447 0.154897 0.090320 -0.052750 0.170798 0.269697 -0.039670 0.059265 -0.189192 0.040236 -0.041742 0.201680 -0.043560 0.217120 -0.213821 -0.087053 0.031580 -0.049827 -0.175029 0.195552 -0.007698 0.052945 -0.043497 -0.000128 0.154448 0.011335 -0.011581 -0.015870 -0.003819 -0.029762 -0.013983 -0.020095 -0.030459 0.081114 -0.087228 -0.173162 0.151136 0.085122 -0.065869 -0.077125 -0.010490 -0.062098 -0.033786 -0.037071 -0.015136 -0.081174 -0.095906 -0.184661 -0.053013 0.090925 0.026434 -0.071061 -0.064172 0.035884 -0.110380 -0.200177 -0.281633 -0.073009 0.100159 0.046201 0.109768 -0.178979 0.129124 0.143235 -0.000663 -0.036825 0.197983 0.190650 -0.076872 0.098818 0.078224 0.040797 0.104298 0.012622 -0.061959 -0.156205 -0.051949 -0.042558 0.217311 -0.109108 0.032549 0.035767 -0.202500 0.165305 0.044684 0.035238 -0.031647 -0.127425 0.054260 -0.004129 0.032108 0.092131 -0.045714
